,0,1,2,3,4,5,6,7,8
0,-1.33518139872,-0.509203839639,-0.53594973883,0.135977908157,-1.61813382782,-0.107155614112,-0.0450592885375,0.135977908157,-0.645256821937
1,-1.33518139872,-0.509203839639,-0.53594973883,0.135977908157,-1.61813382782,-0.107155614112,-0.0450592885375,0.135977908157,-0.645256821937
2,-1.33518139872,-0.509203839639,-0.53594973883,0.135977908157,-1.61813382782,-0.107155614112,-0.0450592885375,0.135977908157,-0.645256821937
3,-1.33518139872,-0.509203839639,-0.53594973883,0.135977908157,-1.61813382782,-0.107155614112,-0.0450592885375,0.135977908157,-0.645256821937
4,-1.33518139872,-0.509203839639,-0.53594973883,0.135977908157,-1.61813382782,-0.107155614112,-0.0450592885375,0.135977908157,-0.645256821937
5,-1.33518139872,-0.509203839639,-0.53594973883,0.135977908157,-1.61813382782,-0.107155614112,-0.0450592885375,0.135977908157,-0.645256821937
6,-1.33518139872,-0.509203839639,-0.53594973883,0.135977908157,-1.61813382782,-0.107155614112,-0.0450592885375,0.135977908157,-0.645256821937
7,-1.33518139872,-0.509203839639,-0.53594973883,0.135977908157,-1.61813382782,-0.107155614112,-0.0450592885375,0.135977908157,-0.645256821937
8,-1.33518139872,-0.509203839639,-0.53594973883,0.135977908157,-1.61813382782,-0.107155614112,-0.0450592885375,0.135977908157,-0.645256821937
9,-1.33518139872,-0.509203839639,-0.53594973883,0.135977908157,-1.61813382782,-0.107155614112,-0.0450592885375,0.135977908157,-0.645256821937
10,-1.33518139872,-0.509203839639,-0.53594973883,0.135977908157,-1.61813382782,-0.107155614112,-0.0450592885375,0.135977908157,-0.645256821937
11,-1.33518139872,-0.509203839639,-0.53594973883,0.135977908157,-1.61813382782,-0.107155614112,-0.0450592885375,0.135977908157,-0.645256821937
12,-1.33518139872,-0.509203839639,-0.53594973883,0.135977908157,-1.61813382782,-0.107155614112,-0.0450592885375,0.135977908157,-0.645256821937
13,-1.33518139872,-0.509203839639,-0.53594973883,0.135977908157,-1.61813382782,-0.107155614112,-0.0450592885375,0.135977908157,-0.645256821937
14,-1.33518139872,-0.509203839639,-0.53594973883,0.135977908157,-1.61813382782,-0.107155614112,-0.0450592885375,0.135977908157,-0.645256821937
15,-1.33518139872,-0.509203839639,-0.53594973883,0.135977908157,-1.61813382782,-0.107155614112,-0.0450592885375,0.135977908157,-0.645256821937
16,-1.33518139872,-0.509203839639,-0.53594973883,0.135977908157,-1.61813382782,-0.107155614112,-0.0450592885375,0.135977908157,-0.645256821937
17,-1.33518139872,-0.509203839639,-0.53594973883,0.135977908157,-1.61813382782,-0.107155614112,-0.0450592885375,0.135977908157,-0.645256821937
18,-1.33518139872,-0.509203839639,-0.53594973883,0.135977908157,-1.61813382782,-0.107155614112,-0.0450592885375,0.135977908157,-0.645256821937
19,-1.33518139872,-0.509203839639,-0.53594973883,0.135977908157,-1.61813382782,-0.107155614112,-0.0450592885375,0.135977908157,-0.645256821937
20,-1.33518139872,-0.509203839639,-0.53594973883,0.135977908157,-1.61813382782,-0.107155614112,-0.0450592885375,0.135977908157,-0.645256821937
21,-1.33518139872,-0.509203839639,-0.53594973883,0.135977908157,-1.61813382782,-0.107155614112,-0.0450592885375,0.135977908157,-0.645256821937
22,-1.33518139872,-0.509203839639,-0.53594973883,0.135977908157,-1.61813382782,-0.107155614112,-0.0450592885375,0.135977908157,-0.645256821937
23,-1.33518139872,-0.509203839639,-0.53594973883,0.135977908157,-1.61813382782,-0.107155614112,-0.0450592885375,0.135977908157,-0.645256821937
24,-1.33518139872,-0.509203839639,-0.53594973883,0.135977908157,-1.61813382782,-0.107155614112,-0.0450592885375,0.135977908157,-0.645256821937
25,-1.33518139872,-0.509203839639,-0.53594973883,0.135977908157,-1.61813382782,-0.107155614112,-0.0450592885375,0.135977908157,-0.645256821937
26,-1.33518139872,-0.509203839639,-0.53594973883,0.135977908157,-1.61813382782,-0.107155614112,-0.0450592885375,0.135977908157,-0.645256821937
27,-1.33518139872,-0.509203839639,-0.53594973883,0.135977908157,-1.61813382782,-0.107155614112,-0.0450592885375,0.135977908157,-0.645256821937
28,-1.33518139872,-0.509203839639,-0.53594973883,0.135977908157,-1.61813382782,-0.107155614112,-0.0450592885375,0.135977908157,-0.645256821937
29,-1.33518139872,-0.509203839639,-0.53594973883,0.135977908157,-1.61813382782,-0.107155614112,-0.0450592885375,0.135977908157,-0.645256821937
30,-1.33518139872,-0.509203839639,-0.53594973883,0.135977908157,-1.61813382782,-0.107155614112,-0.0450592885375,0.135977908157,-0.645256821937
31,-1.33518139872,-0.509203839639,-0.53594973883,0.135977908157,-1.61813382782,-0.107155614112,-0.0450592885375,0.135977908157,-0.645256821937
32,-1.33518139872,-0.509203839639,-0.53594973883,0.135977908157,-1.61813382782,-0.107155614112,-0.0450592885375,0.135977908157,-0.645256821937
33,-1.33518139872,-0.509203839639,-0.53594973883,0.135977908157,-1.61813382782,-0.107155614112,-0.0450592885375,0.135977908157,-0.645256821937
34,-1.33518139872,-0.509203839639,-0.53594973883,0.135977908157,-1.61813382782,-0.107155614112,-0.0450592885375,0.135977908157,-0.645256821937
35,-1.33518139872,-0.509203839639,-0.53594973883,0.135977908157,-1.61813382782,-0.107155614112,-0.0450592885375,0.135977908157,-0.645256821937
36,-1.33518139872,-0.509203839639,-0.53594973883,0.135977908157,-1.61813382782,-0.107155614112,-0.0450592885375,0.135977908157,-0.645256821937
37,-1.33518139872,-0.509203839639,-0.53594973883,0.135977908157,-1.61813382782,-0.107155614112,-0.0450592885375,0.135977908157,-0.645256821937
38,-1.33518139872,-0.509203839639,-0.53594973883,0.135977908157,-1.61813382782,-0.107155614112,-0.0450592885375,0.135977908157,-0.645256821937
39,-1.33518139872,-0.509203839639,-0.53594973883,0.135977908157,-1.61813382782,-0.107155614112,-0.0450592885375,0.135977908157,-0.645256821937
40,-1.33518139872,-0.509203839639,-0.53594973883,0.135977908157,-1.61813382782,-0.107155614112,-0.0450592885375,0.135977908157,-0.645256821937
41,-1.33518139872,-0.509203839639,-0.53594973883,0.135977908157,-1.61813382782,-0.107155614112,-0.0450592885375,0.135977908157,-0.645256821937
42,-1.33518139872,-0.509203839639,-0.53594973883,0.135977908157,-1.61813382782,-0.107155614112,-0.0450592885375,0.135977908157,-0.645256821937
43,-1.33518139872,-0.509203839639,-0.53594973883,0.135977908157,-1.61813382782,-0.107155614112,-0.0450592885375,0.135977908157,-0.645256821937
44,-1.33518139872,-0.509203839639,-0.53594973883,0.135977908157,-1.61813382782,-0.107155614112,-0.0450592885375,0.135977908157,-0.645256821937
45,-1.33518139872,-0.509203839639,-0.53594973883,0.135977908157,-1.61813382782,-0.107155614112,-0.0450592885375,0.135977908157,-0.645256821937
46,-1.33518139872,-0.509203839639,-0.53594973883,0.135977908157,-1.61813382782,-0.107155614112,-0.0450592885375,0.135977908157,-0.645256821937
47,-1.33518139872,-0.509203839639,-0.53594973883,0.135977908157,-1.61813382782,-0.107155614112,-0.0450592885375,0.135977908157,-0.645256821937
48,-1.33518139872,-0.509203839639,-0.53594973883,0.135977908157,-1.61813382782,-0.107155614112,-0.0450592885375,0.135977908157,-0.645256821937
49,-1.33518139872,-0.509203839639,-0.53594973883,0.135977908157,-1.61813382782,-0.107155614112,-0.0450592885375,0.135977908157,-0.645256821937
50,-1.33518139872,-0.509203839639,-0.53594973883,0.135977908157,-1.61813382782,-0.107155614112,-0.0450592885375,0.135977908157,-0.645256821937
51,-1.33518139872,-0.509203839639,-0.53594973883,0.135977908157,-1.61813382782,-0.107155614112,-0.0450592885375,0.135977908157,-0.645256821937
52,-1.33518139872,-0.509203839639,-0.53594973883,0.135977908157,-1.61813382782,-0.107155614112,-0.0450592885375,0.135977908157,-0.645256821937
53,-1.33518139872,-0.509203839639,-0.53594973883,0.135977908157,-1.61813382782,-0.107155614112,-0.0450592885375,0.135977908157,-0.645256821937
54,-1.33518139872,-0.509203839639,-0.53594973883,0.135977908157,-1.61813382782,-0.107155614112,-0.0450592885375,0.135977908157,-0.645256821937
55,-1.33518139872,-0.509203839639,-0.53594973883,0.135977908157,-1.61813382782,-0.107155614112,-0.0450592885375,0.135977908157,-0.645256821937
56,-1.33518139872,-0.509203839639,-0.53594973883,0.135977908157,-1.61813382782,-0.107155614112,-0.0450592885375,0.135977908157,-0.645256821937
57,-1.33518139872,-0.509203839639,-0.53594973883,0.135977908157,-1.61813382782,-0.107155614112,-0.0450592885375,0.135977908157,-0.645256821937
58,-1.33518139872,-0.509203839639,-0.53594973883,0.135977908157,-1.61813382782,-0.107155614112,-0.0450592885375,0.135977908157,-0.645256821937
59,-1.33518139872,-0.509203839639,-0.53594973883,0.135977908157,-1.61813382782,-0.107155614112,-0.0450592885375,0.135977908157,-0.645256821937
60,-1.33518139872,-0.509203839639,-0.53594973883,0.135977908157,-1.61813382782,-0.107155614112,-0.0450592885375,0.135977908157,-0.645256821937
61,-1.33518139872,-0.509203839639,-0.53594973883,0.135977908157,-1.61813382782,-0.107155614112,-0.0450592885375,0.135977908157,-0.645256821937
62,-1.33518139872,-0.509203839639,-0.53594973883,0.135977908157,-1.61813382782,-0.107155614112,-0.0450592885375,0.135977908157,-0.645256821937
63,-1.33518139872,-0.509203839639,-0.53594973883,0.135977908157,-1.61813382782,-0.107155614112,-0.0450592885375,0.135977908157,-0.645256821937
64,-1.33518139872,-0.509203839639,-0.53594973883,0.135977908157,-1.61813382782,-0.107155614112,-0.0450592885375,0.135977908157,-0.645256821937
65,-1.33518139872,-0.509203839639,-0.53594973883,0.135977908157,-1.61813382782,-0.107155614112,-0.0450592885375,0.135977908157,-0.645256821937
66,-1.33518139872,-0.509203839639,-0.53594973883,0.135977908157,-1.61813382782,-0.107155614112,-0.0450592885375,0.135977908157,-0.645256821937
67,-1.33518139872,-0.509203839639,-0.53594973883,0.135977908157,-1.61813382782,-0.107155614112,-0.0450592885375,0.135977908157,-0.645256821937
68,-1.33518139872,-0.509203839639,-0.53594973883,0.135977908157,-1.61813382782,-0.107155614112,-0.0450592885375,0.135977908157,-0.645256821937
69,-1.33518139872,-0.509203839639,-0.53594973883,0.135977908157,-1.61813382782,-0.107155614112,-0.0450592885375,0.135977908157,-0.645256821937
70,-1.33518139872,-0.509203839639,-0.53594973883,0.135977908157,-1.61813382782,-0.107155614112,-0.0450592885375,0.135977908157,-0.645256821937
71,-1.33518139872,-0.509203839639,-0.53594973883,0.135977908157,-1.61813382782,-0.107155614112,-0.0450592885375,0.135977908157,-0.645256821937
72,-1.33518139872,-0.509203839639,-0.53594973883,0.135977908157,-1.61813382782,-0.107155614112,-0.0450592885375,0.135977908157,-0.645256821937
73,-1.33518139872,-0.509203839639,-0.53594973883,0.135977908157,-1.61813382782,-0.107155614112,-0.0450592885375,0.135977908157,-0.645256821937
74,-1.33518139872,-0.509203839639,-0.53594973883,0.135977908157,-1.61813382782,-0.107155614112,-0.0450592885375,0.135977908157,-0.645256821937
75,-1.33518139872,-0.509203839639,-0.53594973883,0.135977908157,-1.61813382782,-0.107155614112,-0.0450592885375,0.135977908157,-0.645256821937
76,-1.33518139872,-0.509203839639,-0.53594973883,0.135977908157,-1.61813382782,-0.107155614112,-0.0450592885375,0.135977908157,-0.645256821937
77,-1.33518139872,-0.509203839639,-0.53594973883,0.135977908157,-1.61813382782,-0.107155614112,-0.0450592885375,0.135977908157,-0.645256821937
78,-1.33518139872,-0.509203839639,-0.53594973883,0.135977908157,-1.61813382782,-0.107155614112,-0.0450592885375,0.135977908157,-0.645256821937
79,-1.33518139872,-0.509203839639,-0.53594973883,0.135977908157,-1.61813382782,-0.107155614112,-0.0450592885375,0.135977908157,-0.645256821937
80,-1.33518139872,-0.509203839639,-0.53594973883,0.135977908157,-1.61813382782,-0.107155614112,-0.0450592885375,0.135977908157,-0.645256821937
81,-1.33518139872,-0.509203839639,-0.53594973883,0.135977908157,-1.61813382782,-0.107155614112,-0.0450592885375,0.135977908157,-0.645256821937
82,-1.33518139872,-0.509203839639,-0.53594973883,0.135977908157,-1.61813382782,-0.107155614112,-0.0450592885375,0.135977908157,-0.645256821937
83,-1.33518139872,-0.509203839639,-0.53594973883,0.135977908157,-1.61813382782,-0.107155614112,-0.0450592885375,0.135977908157,-0.645256821937
84,-1.33518139872,-0.509203839639,-0.53594973883,0.135977908157,-1.61813382782,-0.107155614112,-0.0450592885375,0.135977908157,-0.645256821937
85,-1.33518139872,-0.509203839639,-0.53594973883,0.135977908157,-1.61813382782,-0.107155614112,-0.0450592885375,0.135977908157,-0.645256821937
86,-1.33518139872,-0.509203839639,-0.53594973883,0.135977908157,-1.61813382782,-0.107155614112,-0.0450592885375,0.135977908157,-0.645256821937
87,-1.33518139872,-0.509203839639,-0.53594973883,0.135977908157,-1.61813382782,-0.107155614112,-0.0450592885375,0.135977908157,-0.645256821937
88,-1.33518139872,-0.509203839639,-0.53594973883,0.135977908157,-1.61813382782,-0.107155614112,-0.0450592885375,0.135977908157,-0.645256821937
89,-1.33518139872,-0.509203839639,-0.53594973883,0.135977908157,-1.61813382782,-0.107155614112,-0.0450592885375,0.135977908157,-0.645256821937
90,-1.33518139872,-0.509203839639,-0.53594973883,0.135977908157,-1.61813382782,-0.107155614112,-0.0450592885375,0.135977908157,-0.645256821937
91,-1.33518139872,-0.509203839639,-0.53594973883,0.135977908157,-1.61813382782,-0.107155614112,-0.0450592885375,0.135977908157,-0.645256821937
92,-1.33518139872,-0.509203839639,-0.53594973883,0.135977908157,-1.61813382782,-0.107155614112,-0.0450592885375,0.135977908157,-0.645256821937
93,-1.33518139872,-0.509203839639,-0.53594973883,0.135977908157,-1.61813382782,-0.107155614112,-0.0450592885375,0.135977908157,-0.645256821937
94,-1.33518139872,-0.509203839639,-0.53594973883,0.135977908157,-1.61813382782,-0.107155614112,-0.0450592885375,0.135977908157,-0.645256821937
95,-1.33518139872,-0.509203839639,-0.53594973883,0.135977908157,-1.61813382782,-0.107155614112,-0.0450592885375,0.135977908157,-0.645256821937
96,-1.33518139872,-0.509203839639,-0.53594973883,0.135977908157,-1.61813382782,-0.107155614112,-0.0450592885375,0.135977908157,-0.645256821937
97,-1.33518139872,-0.509203839639,-0.53594973883,0.135977908157,-1.61813382782,-0.107155614112,-0.0450592885375,0.135977908157,-0.645256821937
98,-1.33518139872,-0.509203839639,-0.53594973883,0.135977908157,-1.61813382782,-0.107155614112,-0.0450592885375,0.135977908157,-0.645256821937
99,-1.33518139872,-0.509203839639,-0.53594973883,0.135977908157,-1.61813382782,-0.107155614112,-0.0450592885375,0.135977908157,-0.645256821937
100,-1.33518139872,-0.509203839639,-0.53594973883,0.135977908157,-1.61813382782,-0.107155614112,-0.0450592885375,0.135977908157,-0.645256821937
101,-1.33518139872,-0.509203839639,-0.53594973883,0.135977908157,-1.61813382782,-0.107155614112,-0.0450592885375,0.135977908157,-0.645256821937
102,-1.33518139872,-0.509203839639,-0.53594973883,0.135977908157,-1.61813382782,-0.107155614112,-0.0450592885375,0.135977908157,-0.645256821937
103,-1.33518139872,-0.509203839639,-0.53594973883,0.135977908157,-1.61813382782,-0.107155614112,-0.0450592885375,0.135977908157,-0.645256821937
104,-1.33518139872,-0.509203839639,-0.53594973883,0.135977908157,-1.61813382782,-0.107155614112,-0.0450592885375,0.135977908157,-0.645256821937
105,-1.33518139872,-0.509203839639,-0.53594973883,0.135977908157,-1.61813382782,-0.107155614112,-0.0450592885375,0.135977908157,-0.645256821937
106,-1.33518139872,-0.509203839639,-0.53594973883,0.135977908157,-1.61813382782,-0.107155614112,-0.0450592885375,0.135977908157,-0.645256821937
107,-1.33518139872,-0.509203839639,-0.53594973883,0.135977908157,-1.61813382782,-0.107155614112,-0.0450592885375,0.135977908157,-0.645256821937
108,-1.33518139872,-0.509203839639,-0.53594973883,0.135977908157,-1.61813382782,-0.107155614112,-0.0450592885375,0.135977908157,-0.645256821937
109,-1.33518139872,-0.509203839639,-0.53594973883,0.135977908157,-1.61813382782,-0.107155614112,-0.0450592885375,0.135977908157,-0.645256821937
110,-1.33518139872,-0.509203839639,-0.53594973883,0.135977908157,-1.61813382782,-0.107155614112,-0.0450592885375,0.135977908157,-0.645256821937
111,-1.33518139872,-0.509203839639,-0.53594973883,0.135977908157,-1.61813382782,-0.107155614112,-0.0450592885375,0.135977908157,-0.645256821937
112,-1.33518139872,-0.509203839639,-0.53594973883,0.135977908157,-1.61813382782,-0.107155614112,-0.0450592885375,0.135977908157,-0.645256821937
113,-1.33518139872,-0.509203839639,-0.53594973883,0.135977908157,-1.61813382782,-0.107155614112,-0.0450592885375,0.135977908157,-0.645256821937
114,-1.33518139872,-0.509203839639,-0.53594973883,0.135977908157,-1.61813382782,-0.107155614112,-0.0450592885375,0.135977908157,-0.645256821937
115,-1.33518139872,-0.509203839639,-0.53594973883,0.135977908157,-1.61813382782,-0.107155614112,-0.0450592885375,0.135977908157,-0.645256821937
116,-1.33518139872,-0.509203839639,-0.53594973883,0.135977908157,-1.61813382782,-0.107155614112,-0.0450592885375,0.135977908157,-0.645256821937
117,-1.33518139872,-0.509203839639,-0.53594973883,0.135977908157,-1.61813382782,-0.107155614112,-0.0450592885375,0.135977908157,-0.645256821937
118,-1.33518139872,-0.509203839639,-0.53594973883,0.135977908157,-1.61813382782,-0.107155614112,-0.0450592885375,0.135977908157,-0.645256821937
119,-1.33518139872,-0.509203839639,-0.53594973883,0.135977908157,-1.61813382782,-0.107155614112,-0.0450592885375,0.135977908157,-0.645256821937
120,-1.33518139872,-0.509203839639,-0.53594973883,0.135977908157,-1.61813382782,-0.107155614112,-0.0450592885375,0.135977908157,-0.645256821937
121,-1.33518139872,-0.509203839639,-0.53594973883,0.135977908157,-1.61813382782,-0.107155614112,-0.0450592885375,0.135977908157,-0.645256821937
122,-1.33518139872,-0.509203839639,-0.53594973883,0.135977908157,-1.61813382782,-0.107155614112,-0.0450592885375,0.135977908157,-0.645256821937
123,-1.33518139872,-0.509203839639,-0.53594973883,0.135977908157,-1.61813382782,-0.107155614112,-0.0450592885375,0.135977908157,-0.645256821937
124,-1.33518139872,-0.509203839639,-0.53594973883,0.135977908157,-1.61813382782,-0.107155614112,-0.0450592885375,0.135977908157,-0.645256821937
125,-1.33518139872,-0.509203839639,-0.53594973883,0.135977908157,-1.61813382782,-0.107155614112,-0.0450592885375,0.135977908157,-0.645256821937
126,-1.33518139872,-0.509203839639,-0.53594973883,0.135977908157,-1.61813382782,-0.107155614112,-0.0450592885375,0.135977908157,-0.645256821937
127,-1.33518139872,-0.509203839639,-0.53594973883,0.135977908157,-1.61813382782,-0.107155614112,-0.0450592885375,0.135977908157,-0.645256821937
128,-1.33518139872,-0.509203839639,-0.53594973883,0.135977908157,-1.61813382782,-0.107155614112,-0.0450592885375,0.135977908157,-0.645256821937
129,-1.33518139872,-0.509203839639,-0.53594973883,0.135977908157,-1.61813382782,-0.107155614112,-0.0450592885375,0.135977908157,-0.645256821937
130,-1.33518139872,-0.509203839639,-0.53594973883,0.135977908157,-1.61813382782,-0.107155614112,-0.0450592885375,0.135977908157,-0.645256821937
131,-1.33518139872,-0.509203839639,-0.53594973883,0.135977908157,-1.61813382782,-0.107155614112,-0.0450592885375,0.135977908157,-0.645256821937
132,-1.33518139872,-0.509203839639,-0.53594973883,0.135977908157,-1.61813382782,-0.107155614112,-0.0450592885375,0.135977908157,-0.645256821937
133,-1.33518139872,-0.509203839639,-0.53594973883,0.135977908157,-1.61813382782,-0.107155614112,-0.0450592885375,0.135977908157,-0.645256821937
134,-1.33518139872,-0.509203839639,-0.53594973883,0.135977908157,-1.61813382782,-0.107155614112,-0.0450592885375,0.135977908157,-0.645256821937
135,-1.33518139872,-0.509203839639,-0.53594973883,0.135977908157,-1.61813382782,-0.107155614112,-0.0450592885375,0.135977908157,-0.645256821937
136,-1.33518139872,-0.509203839639,-0.53594973883,0.135977908157,-1.61813382782,-0.107155614112,-0.0450592885375,0.135977908157,-0.645256821937
137,-1.33518139872,-0.509203839639,-0.53594973883,0.135977908157,-1.61813382782,-0.107155614112,-0.0450592885375,0.135977908157,-0.645256821937
138,-1.33518139872,-0.509203839639,-0.53594973883,0.135977908157,-1.61813382782,-0.107155614112,-0.0450592885375,0.135977908157,-0.645256821937
139,-1.33518139872,-0.509203839639,-0.53594973883,0.135977908157,-1.61813382782,-0.107155614112,-0.0450592885375,0.135977908157,-0.645256821937
140,-1.33518139872,-0.509203839639,-0.53594973883,0.135977908157,-1.61813382782,-0.107155614112,-0.0450592885375,0.135977908157,-0.645256821937
141,-1.33518139872,-0.509203839639,-0.53594973883,0.135977908157,-1.61813382782,-0.107155614112,-0.0450592885375,0.135977908157,-0.645256821937
142,-1.33518139872,-0.509203839639,-0.53594973883,0.135977908157,-1.61813382782,-0.107155614112,-0.0450592885375,0.135977908157,-0.645256821937
143,-1.33518139872,-0.509203839639,-0.53594973883,0.135977908157,-1.61813382782,-0.107155614112,-0.0450592885375,0.135977908157,-0.645256821937
144,-1.33518139872,-0.509203839639,-0.53594973883,0.135977908157,-1.61813382782,-0.107155614112,-0.0450592885375,0.135977908157,-0.645256821937
145,-1.33518139872,-0.509203839639,-0.53594973883,0.135977908157,-1.61813382782,-0.107155614112,-0.0450592885375,0.135977908157,-0.645256821937
146,-1.33518139872,-0.509203839639,-0.53594973883,0.135977908157,-1.61813382782,-0.107155614112,-0.0450592885375,0.135977908157,-0.645256821937
147,-1.33518139872,-0.509203839639,-0.53594973883,0.135977908157,-1.61813382782,-0.107155614112,-0.0450592885375,0.135977908157,-0.645256821937
148,-1.33518139872,-0.509203839639,-0.53594973883,0.135977908157,-1.61813382782,-0.107155614112,-0.0450592885375,0.135977908157,-0.645256821937
149,-1.33518139872,-0.509203839639,-0.53594973883,0.135977908157,-1.61813382782,-0.107155614112,-0.0450592885375,0.135977908157,-0.645256821937
150,-1.86058625429,-0.509203839639,-0.53594973883,-3.02269274549,-3.06518874918,0.111052554531,-0.0450592885375,-3.02269274549,-0.645256821937
151,-1.86058625429,-0.509203839639,-0.53594973883,-3.02269274549,-3.06518874918,0.111052554531,-0.0450592885375,-3.02269274549,-0.645256821937
152,-1.86058625429,-0.509203839639,-0.53594973883,-3.02269274549,-3.06518874918,0.111052554531,-0.0450592885375,-3.02269274549,-0.645256821937
153,-1.86058625429,-0.509203839639,-0.53594973883,-3.02269274549,-3.06518874918,0.111052554531,-0.0450592885375,-3.02269274549,-0.645256821937
154,-1.86058625429,-0.509203839639,-0.53594973883,-3.02269274549,-3.06518874918,0.111052554531,-0.0450592885375,-3.02269274549,-0.645256821937
155,-1.86058625429,-0.509203839639,-0.53594973883,-3.02269274549,-3.06518874918,0.111052554531,-0.0450592885375,-3.02269274549,-0.645256821937
156,-1.86058625429,-0.509203839639,-0.53594973883,-3.02269274549,-3.06518874918,0.111052554531,-0.0450592885375,-3.02269274549,-0.645256821937
157,-1.86058625429,-0.509203839639,-0.53594973883,-3.02269274549,-3.06518874918,0.111052554531,-0.0450592885375,-3.02269274549,-0.645256821937
158,-1.59788382651,-0.509203839639,-0.53594973883,-1.1274903533,1.99950347559,0.00194847020934,-0.0450592885375,-1.1274903533,-0.645256821937
159,-1.59788382651,-0.509203839639,-0.53594973883,-1.1274903533,1.99950347559,0.00194847020934,-0.0450592885375,-1.1274903533,-0.645256821937
160,-1.59788382651,-0.509203839639,-0.53594973883,-1.1274903533,1.99950347559,0.00194847020934,-0.0450592885375,-1.1274903533,-0.645256821937
161,-1.59788382651,-0.509203839639,-0.53594973883,-1.1274903533,1.99950347559,0.00194847020934,-0.0450592885375,-1.1274903533,-0.645256821937
162,-1.59788382651,-0.509203839639,-0.53594973883,-1.1274903533,1.99950347559,0.00194847020934,-0.0450592885375,-1.1274903533,-0.645256821937
163,-1.46653261261,-0.509203839639,-0.53594973883,-0.285178178995,1.75832765536,0.00194847020934,-0.0450592885375,-0.285178178995,-0.645256821937
164,-1.46653261261,-0.509203839639,-0.53594973883,-0.285178178995,1.75832765536,0.00194847020934,-0.0450592885375,-0.285178178995,-0.645256821937
165,-1.46653261261,-0.509203839639,-0.53594973883,-0.285178178995,1.75832765536,0.00194847020934,-0.0450592885375,-0.285178178995,-0.645256821937
166,-1.46653261261,-0.509203839639,-0.53594973883,-0.285178178995,1.75832765536,0.00194847020934,-0.0450592885375,-0.285178178995,-0.645256821937
167,-1.46653261261,-0.509203839639,-0.53594973883,-0.285178178995,1.75832765536,0.00194847020934,-0.0450592885375,-0.285178178995,-0.645256821937
168,-1.46653261261,-0.509203839639,-0.53594973883,-0.285178178995,1.75832765536,0.00194847020934,-0.0450592885375,-0.285178178995,-0.645256821937
169,-1.46653261261,-0.509203839639,-0.53594973883,-0.285178178995,1.75832765536,0.00194847020934,-0.0450592885375,-0.285178178995,-0.645256821937
170,-1.46653261261,-0.509203839639,-0.53594973883,-0.285178178995,1.75832765536,0.00194847020934,-0.0450592885375,-0.285178178995,-0.645256821937
171,-1.46653261261,-0.509203839639,-0.53594973883,-0.285178178995,1.75832765536,0.00194847020934,-0.0450592885375,-0.285178178995,-0.645256821937
172,-1.46653261261,-0.509203839639,-0.53594973883,-0.285178178995,1.75832765536,0.00194847020934,-0.0450592885375,-0.285178178995,-0.645256821937
173,-1.46653261261,-0.509203839639,-0.53594973883,-0.285178178995,1.75832765536,0.00194847020934,-0.0450592885375,-0.285178178995,-0.645256821937
174,-1.46653261261,-0.509203839639,-0.53594973883,-0.285178178995,1.75832765536,0.00194847020934,-0.0450592885375,-0.285178178995,-0.645256821937
175,-1.46653261261,-0.509203839639,-0.53594973883,-0.285178178995,1.75832765536,0.00194847020934,-0.0450592885375,-0.285178178995,-0.645256821937
176,-1.46653261261,-0.509203839639,-0.53594973883,-0.285178178995,1.75832765536,0.00194847020934,-0.0450592885375,-0.285178178995,-0.645256821937
177,-1.46653261261,-0.509203839639,-0.53594973883,-0.285178178995,1.75832765536,0.00194847020934,-0.0450592885375,-0.285178178995,-0.645256821937
178,-1.46653261261,-0.509203839639,-0.53594973883,-0.285178178995,1.75832765536,0.00194847020934,-0.0450592885375,-0.285178178995,-0.645256821937
179,-1.46653261261,-0.509203839639,-0.53594973883,-0.285178178995,1.75832765536,0.00194847020934,-0.0450592885375,-0.285178178995,-0.645256821937
180,-1.26950579177,-0.509203839639,-0.53594973883,0.978290082463,2.24067929582,-0.179891670326,-0.0450592885375,0.978290082463,-0.645256821937
181,-1.20383018482,-0.509203839639,-0.53594973883,1.18886812604,1.03480019468,-0.179891670326,-0.0450592885375,1.18886812604,-0.645256821937
182,-1.20383018482,-0.509203839639,-0.53594973883,1.18886812604,1.03480019468,-0.179891670326,-0.0450592885375,1.18886812604,-0.645256821937
183,-1.20383018482,-0.509203839639,-0.53594973883,1.18886812604,1.03480019468,-0.179891670326,-0.0450592885375,1.18886812604,-0.645256821937
184,-1.20383018482,-0.509203839639,-0.53594973883,1.18886812604,1.03480019468,-0.179891670326,-0.0450592885375,1.18886812604,-0.645256821937
185,-1.20383018482,-0.509203839639,-0.53594973883,1.18886812604,1.03480019468,-0.179891670326,-0.0450592885375,1.18886812604,-0.645256821937
186,-1.20383018482,-0.509203839639,-0.53594973883,1.18886812604,1.03480019468,-0.179891670326,-0.0450592885375,1.18886812604,-0.645256821937
187,-1.20383018482,-0.509203839639,-0.53594973883,1.18886812604,1.03480019468,-0.179891670326,-0.0450592885375,1.18886812604,-0.645256821937
188,-1.20383018482,-0.509203839639,-0.53594973883,1.18886812604,1.03480019468,-0.179891670326,-0.0450592885375,1.18886812604,-0.645256821937
189,-1.20383018482,-0.509203839639,-0.53594973883,1.18886812604,1.03480019468,-0.179891670326,-0.0450592885375,1.18886812604,-0.645256821937
190,-1.20383018482,-0.509203839639,-0.53594973883,1.18886812604,1.03480019468,-0.179891670326,-0.0450592885375,1.18886812604,-0.645256821937
191,-1.20383018482,-0.509203839639,-0.53594973883,1.18886812604,1.03480019468,-0.179891670326,-0.0450592885375,1.18886812604,-0.645256821937
192,-1.20383018482,-0.509203839639,-0.53594973883,1.18886812604,1.03480019468,-0.179891670326,-0.0450592885375,1.18886812604,-0.645256821937
193,-1.20383018482,-0.509203839639,-0.53594973883,1.18886812604,1.03480019468,-0.179891670326,-0.0450592885375,1.18886812604,-0.645256821937
194,-1.20383018482,-0.509203839639,-0.53594973883,1.18886812604,1.03480019468,-0.179891670326,-0.0450592885375,1.18886812604,-0.645256821937
195,-1.20383018482,-0.509203839639,-0.53594973883,1.18886812604,1.03480019468,-0.179891670326,-0.0450592885375,1.18886812604,-0.645256821937
196,-1.20383018482,-0.509203839639,-0.53594973883,1.18886812604,1.03480019468,-0.179891670326,-0.0450592885375,1.18886812604,-0.645256821937
197,-1.20383018482,-0.509203839639,-0.53594973883,1.18886812604,1.03480019468,-0.179891670326,-0.0450592885375,1.18886812604,-0.645256821937
198,-1.20383018482,-0.509203839639,-0.53594973883,1.18886812604,1.03480019468,-0.179891670326,-0.0450592885375,1.18886812604,-0.645256821937
199,-1.20383018482,-0.509203839639,-0.53594973883,1.18886812604,1.03480019468,-0.179891670326,-0.0450592885375,1.18886812604,-0.645256821937
200,-1.20383018482,-0.509203839639,-0.53594973883,1.18886812604,1.03480019468,-0.179891670326,-0.0450592885375,1.18886812604,-0.645256821937
201,-1.20383018482,-0.509203839639,-0.53594973883,1.18886812604,1.03480019468,-0.179891670326,-0.0450592885375,1.18886812604,-0.645256821937
202,-1.20383018482,-0.509203839639,-0.53594973883,1.18886812604,1.03480019468,-0.179891670326,-0.0450592885375,1.18886812604,-0.645256821937
203,-1.20383018482,-0.509203839639,-0.53594973883,1.18886812604,1.03480019468,-0.179891670326,-0.0450592885375,1.18886812604,-0.645256821937
204,-1.20383018482,-0.509203839639,-0.53594973883,1.18886812604,1.03480019468,-0.179891670326,-0.0450592885375,1.18886812604,-0.645256821937
205,-1.20383018482,-0.509203839639,-0.53594973883,1.18886812604,1.03480019468,-0.179891670326,-0.0450592885375,1.18886812604,-0.645256821937
206,-1.20383018482,-0.509203839639,-0.53594973883,1.18886812604,1.03480019468,-0.179891670326,-0.0450592885375,1.18886812604,-0.645256821937
207,-1.20383018482,-0.509203839639,-0.53594973883,1.18886812604,1.03480019468,-0.179891670326,-0.0450592885375,1.18886812604,-0.645256821937
208,-1.20383018482,-0.509203839639,-0.53594973883,1.18886812604,1.03480019468,-0.179891670326,-0.0450592885375,1.18886812604,-0.645256821937
209,-1.20383018482,-0.509203839639,-0.53594973883,1.18886812604,1.03480019468,-0.179891670326,-0.0450592885375,1.18886812604,-0.645256821937
210,-1.20383018482,-0.509203839639,-0.53594973883,1.18886812604,1.03480019468,-0.179891670326,-0.0450592885375,1.18886812604,-0.645256821937
211,-1.20383018482,-0.509203839639,-0.53594973883,1.18886812604,1.03480019468,-0.179891670326,-0.0450592885375,1.18886812604,-0.645256821937
212,-1.20383018482,-0.509203839639,-0.53594973883,1.18886812604,1.03480019468,-0.179891670326,-0.0450592885375,1.18886812604,-0.645256821937
213,-1.20383018482,-0.509203839639,-0.53594973883,1.18886812604,1.03480019468,-0.179891670326,-0.0450592885375,1.18886812604,-0.645256821937
214,-1.20383018482,-0.509203839639,-0.53594973883,1.18886812604,1.03480019468,-0.179891670326,-0.0450592885375,1.18886812604,-0.645256821937
215,-1.20383018482,-0.509203839639,-0.53594973883,1.18886812604,1.03480019468,-0.179891670326,-0.0450592885375,1.18886812604,-0.645256821937
216,-1.20383018482,-0.509203839639,-0.53594973883,1.18886812604,1.03480019468,-0.179891670326,-0.0450592885375,1.18886812604,-0.645256821937
217,-1.20383018482,-0.509203839639,-0.53594973883,1.18886812604,1.03480019468,-0.179891670326,-0.0450592885375,1.18886812604,-0.645256821937
218,-1.40085700567,-0.509203839639,-0.53594973883,-0.0746001354189,3.20538257673,-0.143523642219,-0.0450592885375,-0.0746001354189,-0.645256821937
219,-1.40085700567,-0.509203839639,-0.53594973883,-0.0746001354189,3.20538257673,-0.143523642219,-0.0450592885375,-0.0746001354189,-0.645256821937
220,-1.40085700567,-0.509203839639,-0.53594973883,-0.0746001354189,3.20538257673,-0.143523642219,-0.0450592885375,-0.0746001354189,-0.645256821937
221,-1.66355943345,-0.509203839639,-0.53594973883,-1.96980252761,-0.171078906454,-0.0344195578978,-0.0450592885375,-1.96980252761,-0.645256821937
222,-1.66355943345,-0.509203839639,-0.53594973883,-1.96980252761,-0.171078906454,-0.0344195578978,-0.0450592885375,-1.96980252761,-0.645256821937
223,-1.66355943345,-0.509203839639,-0.53594973883,-1.96980252761,-0.171078906454,-0.0344195578978,-0.0450592885375,-1.96980252761,-0.645256821937
224,-1.7292350404,-0.509203839639,-0.53594973883,-2.18038057118,-0.653430546909,-0.0344195578978,-0.0450592885375,-2.18038057118,-0.645256821937
225,-1.79491064735,-0.509203839639,-0.53594973883,-2.39095861476,0.793624374454,-0.0344195578978,-0.0450592885375,-2.39095861476,-0.645256821937
226,-1.79491064735,-0.509203839639,-0.53594973883,-2.39095861476,0.793624374454,-0.0344195578978,-0.0450592885375,-2.39095861476,-0.645256821937
227,-1.79491064735,-0.509203839639,-0.53594973883,-2.39095861476,0.793624374454,-0.0344195578978,-0.0450592885375,-2.39095861476,-0.645256821937
228,-1.79491064735,-0.509203839639,-0.53594973883,-2.39095861476,0.793624374454,-0.0344195578978,-0.0450592885375,-2.39095861476,-0.645256821937
229,-1.13815457788,-0.509203839639,-0.53594973883,2.24175834392,1.27597601491,0.00194847020934,-0.00553359683794,2.24175834392,-0.645256821937
230,-1.13815457788,-0.509203839639,-0.53594973883,2.24175834392,1.27597601491,0.00194847020934,-0.00553359683794,2.24175834392,-0.645256821937
231,-1.13815457788,-0.509203839639,-0.53594973883,2.24175834392,1.27597601491,0.00194847020934,-0.00553359683794,2.24175834392,-0.645256821937
232,-1.13815457788,-0.509203839639,-0.53594973883,2.24175834392,1.27597601491,0.00194847020934,-0.00553359683794,2.24175834392,-0.645256821937
233,-1.13815457788,-0.509203839639,-0.53594973883,2.24175834392,1.27597601491,0.00194847020934,-0.00553359683794,2.24175834392,-0.645256821937
234,-1.13815457788,-0.509203839639,-0.53594973883,2.24175834392,1.27597601491,0.00194847020934,-0.00553359683794,2.24175834392,-0.645256821937
235,-1.13815457788,-0.509203839639,-0.53594973883,2.24175834392,1.27597601491,0.00194847020934,-0.00553359683794,2.24175834392,-0.645256821937
236,-1.13815457788,-0.509203839639,-0.53594973883,2.24175834392,1.27597601491,0.00194847020934,-0.00553359683794,2.24175834392,-0.645256821937
237,-1.13815457788,-0.509203839639,-0.53594973883,2.24175834392,1.27597601491,0.00194847020934,-0.00553359683794,2.24175834392,-0.645256821937
238,-1.13815457788,-0.509203839639,-0.53594973883,2.24175834392,1.27597601491,0.00194847020934,-0.00553359683794,2.24175834392,-0.645256821937
239,-1.13815457788,-0.509203839639,-0.53594973883,2.24175834392,1.27597601491,0.00194847020934,-0.00553359683794,2.24175834392,-0.645256821937
240,-1.13815457788,-0.509203839639,-0.53594973883,2.24175834392,1.27597601491,0.00194847020934,-0.00553359683794,2.24175834392,-0.645256821937
241,-1.13815457788,-0.509203839639,-0.53594973883,2.24175834392,1.27597601491,0.00194847020934,-0.00553359683794,2.24175834392,-0.645256821937
242,-1.13815457788,-0.509203839639,-0.53594973883,2.24175834392,1.27597601491,0.00194847020934,-0.00553359683794,2.24175834392,-0.645256821937
243,-1.53220821956,-0.509203839639,-0.53594973883,-0.495756222572,-2.82401292895,0.0746845264237,-0.00553359683794,-0.495756222572,-0.645256821937
244,-1.92626186124,-0.509203839639,-0.53594973883,-3.23327078906,2.48185511604,-0.179891670326,-0.00553359683794,-3.23327078906,-0.645256821937
245,-1.92626186124,-0.509203839639,-0.53594973883,-3.23327078906,2.48185511604,-0.179891670326,-0.00553359683794,-3.23327078906,-0.645256821937
246,-0.678425329249,-0.456277056277,-0.167677772666,0.135977908157,-1.61813382782,-0.107155614112,-0.0450592885375,0.135977908157,-0.661933775387
247,-0.678425329249,-0.456277056277,-0.167677772666,0.135977908157,-1.61813382782,-0.107155614112,-0.0450592885375,0.135977908157,-0.661933775387
248,-0.678425329249,-0.456277056277,-0.167677772666,0.135977908157,-1.61813382782,-0.107155614112,-0.0450592885375,0.135977908157,-0.661933775387
249,-0.678425329249,-0.456277056277,-0.167677772666,0.135977908157,-1.61813382782,-0.107155614112,-0.0450592885375,0.135977908157,-0.661933775387
250,-0.678425329249,-0.456277056277,-0.167677772666,0.135977908157,-1.61813382782,-0.107155614112,-0.0450592885375,0.135977908157,-0.661933775387
251,-0.678425329249,-0.456277056277,-0.167677772666,0.135977908157,-1.61813382782,-0.107155614112,-0.0450592885375,0.135977908157,-0.661933775387
252,-0.678425329249,-0.456277056277,-0.167677772666,0.135977908157,-1.61813382782,-0.107155614112,-0.0450592885375,0.135977908157,-0.661933775387
253,-0.678425329249,-0.456277056277,-0.167677772666,0.135977908157,-1.61813382782,-0.107155614112,-0.0450592885375,0.135977908157,-0.661933775387
254,-0.678425329249,-0.456277056277,-0.167677772666,0.135977908157,-1.61813382782,-0.107155614112,-0.0450592885375,0.135977908157,-0.661933775387
255,-0.678425329249,-0.456277056277,-0.167677772666,0.135977908157,-1.61813382782,-0.107155614112,-0.0450592885375,0.135977908157,-0.661933775387
256,-0.678425329249,-0.456277056277,-0.167677772666,0.135977908157,-1.61813382782,-0.107155614112,-0.0450592885375,0.135977908157,-0.661933775387
257,-0.678425329249,-0.456277056277,-0.167677772666,0.135977908157,-1.61813382782,-0.107155614112,-0.0450592885375,0.135977908157,-0.661933775387
258,-0.678425329249,-0.456277056277,-0.167677772666,0.135977908157,-1.61813382782,-0.107155614112,-0.0450592885375,0.135977908157,-0.661933775387
259,-0.678425329249,-0.456277056277,-0.167677772666,0.135977908157,-1.61813382782,-0.107155614112,-0.0450592885375,0.135977908157,-0.661933775387
260,-0.678425329249,-0.456277056277,-0.167677772666,0.135977908157,-1.61813382782,-0.107155614112,-0.0450592885375,0.135977908157,-0.661933775387
261,-0.678425329249,-0.456277056277,-0.167677772666,0.135977908157,-1.61813382782,-0.107155614112,-0.0450592885375,0.135977908157,-0.661933775387
262,-0.678425329249,-0.456277056277,-0.167677772666,0.135977908157,-1.61813382782,-0.107155614112,-0.0450592885375,0.135977908157,-0.661933775387
263,-0.678425329249,-0.456277056277,-0.167677772666,0.135977908157,-1.61813382782,-0.107155614112,-0.0450592885375,0.135977908157,-0.661933775387
264,-0.678425329249,-0.456277056277,-0.167677772666,0.135977908157,-1.61813382782,-0.107155614112,-0.0450592885375,0.135977908157,-0.661933775387
265,-0.678425329249,-0.456277056277,-0.167677772666,0.135977908157,-1.61813382782,-0.107155614112,-0.0450592885375,0.135977908157,-0.661933775387
266,-0.678425329249,-0.456277056277,-0.167677772666,0.135977908157,-1.61813382782,-0.107155614112,-0.0450592885375,0.135977908157,-0.661933775387
267,-0.678425329249,-0.456277056277,-0.167677772666,0.135977908157,-1.61813382782,-0.107155614112,-0.0450592885375,0.135977908157,-0.661933775387
268,-0.678425329249,-0.456277056277,-0.167677772666,0.135977908157,-1.61813382782,-0.107155614112,-0.0450592885375,0.135977908157,-0.661933775387
269,-0.87545215009,-0.456277056277,-0.167677772666,-3.02269274549,-3.06518874918,0.111052554531,-0.0450592885375,-3.02269274549,-0.661933775387
270,-0.87545215009,-0.456277056277,-0.167677772666,-3.02269274549,-3.06518874918,0.111052554531,-0.0450592885375,-3.02269274549,-0.661933775387
271,-0.87545215009,-0.456277056277,-0.167677772666,-3.02269274549,-3.06518874918,0.111052554531,-0.0450592885375,-3.02269274549,-0.661933775387
272,-0.87545215009,-0.456277056277,-0.167677772666,-3.02269274549,-3.06518874918,0.111052554531,-0.0450592885375,-3.02269274549,-0.661933775387
273,-0.87545215009,-0.456277056277,-0.167677772666,-3.02269274549,-3.06518874918,0.111052554531,-0.0450592885375,-3.02269274549,-0.661933775387
274,-0.87545215009,-0.456277056277,-0.167677772666,-3.02269274549,-3.06518874918,0.111052554531,-0.0450592885375,-3.02269274549,-0.661933775387
275,-0.87545215009,-0.456277056277,-0.167677772666,-3.02269274549,-3.06518874918,0.111052554531,-0.0450592885375,-3.02269274549,-0.661933775387
276,-0.87545215009,-0.456277056277,-0.167677772666,-3.02269274549,-3.06518874918,0.111052554531,-0.0450592885375,-3.02269274549,-0.661933775387
277,-0.87545215009,-0.456277056277,-0.167677772666,-3.02269274549,-3.06518874918,0.111052554531,-0.0450592885375,-3.02269274549,-0.661933775387
278,-0.87545215009,-0.456277056277,-0.167677772666,-3.02269274549,-3.06518874918,0.111052554531,-0.0450592885375,-3.02269274549,-0.661933775387
279,-0.87545215009,-0.456277056277,-0.167677772666,-3.02269274549,-3.06518874918,0.111052554531,-0.0450592885375,-3.02269274549,-0.661933775387
280,-0.744100936196,-0.456277056277,-0.167677772666,-0.285178178995,1.75832765536,0.00194847020934,-0.0450592885375,-0.285178178995,-0.661933775387
281,-0.744100936196,-0.456277056277,-0.167677772666,-0.285178178995,1.75832765536,0.00194847020934,-0.0450592885375,-0.285178178995,-0.661933775387
282,-0.744100936196,-0.456277056277,-0.167677772666,-0.285178178995,1.75832765536,0.00194847020934,-0.0450592885375,-0.285178178995,-0.661933775387
283,-0.744100936196,-0.456277056277,-0.167677772666,-0.285178178995,1.75832765536,0.00194847020934,-0.0450592885375,-0.285178178995,-0.661933775387
284,-0.809776543143,-0.456277056277,-0.167677772666,-2.60153665834,-0.894606367136,-0.0344195578978,-0.0450592885375,-2.60153665834,-0.661933775387
285,-0.809776543143,-0.456277056277,-0.167677772666,-2.60153665834,-0.894606367136,-0.0344195578978,-0.0450592885375,-2.60153665834,-0.661933775387
286,-0.809776543143,-0.456277056277,-0.167677772666,-2.60153665834,-0.894606367136,-0.0344195578978,-0.0450592885375,-2.60153665834,-0.661933775387
287,-0.809776543143,-0.456277056277,-0.167677772666,-2.60153665834,-0.894606367136,-0.0344195578978,-0.0450592885375,-2.60153665834,-0.661933775387
288,-0.809776543143,-0.456277056277,-0.167677772666,-2.60153665834,-0.894606367136,-0.0344195578978,-0.0450592885375,-2.60153665834,-0.661933775387
289,-0.809776543143,-0.456277056277,-0.167677772666,-2.60153665834,-0.894606367136,-0.0344195578978,-0.0450592885375,-2.60153665834,-0.661933775387
290,-0.809776543143,-0.456277056277,-0.167677772666,-2.60153665834,-0.894606367136,-0.0344195578978,-0.0450592885375,-2.60153665834,-0.661933775387
291,-0.941127757037,-0.456277056277,-0.351813755748,0.135977908157,-1.61813382782,-0.107155614112,-0.0450592885375,0.135977908157,-0.678610728837
292,-0.941127757037,-0.456277056277,-0.351813755748,0.135977908157,-1.61813382782,-0.107155614112,-0.0450592885375,0.135977908157,-0.678610728837
293,-0.941127757037,-0.456277056277,-0.351813755748,0.135977908157,-1.61813382782,-0.107155614112,-0.0450592885375,0.135977908157,-0.678610728837
294,-0.941127757037,-0.456277056277,-0.351813755748,0.135977908157,-1.61813382782,-0.107155614112,-0.0450592885375,0.135977908157,-0.678610728837
295,-0.941127757037,-0.456277056277,-0.351813755748,0.135977908157,-1.61813382782,-0.107155614112,-0.0450592885375,0.135977908157,-0.678610728837
296,-0.941127757037,-0.456277056277,-0.351813755748,0.135977908157,-1.61813382782,-0.107155614112,-0.0450592885375,0.135977908157,-0.678610728837
297,-0.941127757037,-0.456277056277,-0.351813755748,0.135977908157,-1.61813382782,-0.107155614112,-0.0450592885375,0.135977908157,-0.678610728837
298,-1.07247897093,-0.456277056277,-0.351813755748,-3.02269274549,-3.06518874918,0.111052554531,-0.0450592885375,-3.02269274549,-0.678610728837
299,-1.07247897093,-0.456277056277,-0.351813755748,-3.02269274549,-3.06518874918,0.111052554531,-0.0450592885375,-3.02269274549,-0.678610728837
300,-1.00680336398,-0.456277056277,-0.351813755748,-0.285178178995,1.75832765536,0.00194847020934,-0.0450592885375,-0.285178178995,-0.678610728837
301,0.569411202744,-0.244569922831,0.753002142744,0.135977908157,-1.61813382782,-0.107155614112,-0.0450592885375,0.135977908157,-0.878734170236
302,0.569411202744,-0.244569922831,0.753002142744,0.135977908157,-1.61813382782,-0.107155614112,-0.0450592885375,0.135977908157,-0.878734170236
303,0.569411202744,-0.244569922831,0.753002142744,0.135977908157,-1.61813382782,-0.107155614112,-0.0450592885375,0.135977908157,-0.878734170236
304,0.569411202744,-0.244569922831,0.753002142744,0.135977908157,-1.61813382782,-0.107155614112,-0.0450592885375,0.135977908157,-0.878734170236
305,0.569411202744,-0.244569922831,0.753002142744,0.135977908157,-1.61813382782,-0.107155614112,-0.0450592885375,0.135977908157,-0.878734170236
306,0.569411202744,-0.244569922831,0.753002142744,0.135977908157,-1.61813382782,-0.107155614112,-0.0450592885375,0.135977908157,-0.878734170236
307,0.569411202744,-0.244569922831,0.753002142744,0.135977908157,-1.61813382782,-0.107155614112,-0.0450592885375,0.135977908157,-0.878734170236
308,0.569411202744,-0.244569922831,0.753002142744,0.135977908157,-1.61813382782,-0.107155614112,-0.0450592885375,0.135977908157,-0.878734170236
309,0.569411202744,-0.244569922831,0.753002142744,0.135977908157,-1.61813382782,-0.107155614112,-0.0450592885375,0.135977908157,-0.878734170236
310,0.569411202744,-0.244569922831,0.753002142744,0.135977908157,-1.61813382782,-0.107155614112,-0.0450592885375,0.135977908157,-0.878734170236
311,0.569411202744,-0.244569922831,0.753002142744,0.135977908157,-1.61813382782,-0.107155614112,-0.0450592885375,0.135977908157,-0.878734170236
312,0.372384381903,-0.244569922831,0.753002142744,-3.02269274549,-3.06518874918,0.111052554531,-0.0450592885375,-3.02269274549,-0.878734170236
313,0.372384381903,-0.244569922831,0.753002142744,-3.02269274549,-3.06518874918,0.111052554531,-0.0450592885375,-3.02269274549,-0.878734170236
314,0.372384381903,-0.244569922831,0.753002142744,-3.02269274549,-3.06518874918,0.111052554531,-0.0450592885375,-3.02269274549,-0.878734170236
315,0.372384381903,-0.244569922831,0.753002142744,-3.02269274549,-3.06518874918,0.111052554531,-0.0450592885375,-3.02269274549,-0.878734170236
316,0.372384381903,-0.244569922831,0.753002142744,-3.02269274549,-3.06518874918,0.111052554531,-0.0450592885375,-3.02269274549,-0.878734170236
317,0.372384381903,-0.244569922831,0.753002142744,-3.02269274549,-3.06518874918,0.111052554531,-0.0450592885375,-3.02269274549,-0.878734170236
318,0.372384381903,-0.244569922831,0.753002142744,-3.02269274549,-3.06518874918,0.111052554531,-0.0450592885375,-3.02269274549,-0.878734170236
319,0.503735595797,-0.244569922831,0.753002142744,-0.285178178995,1.75832765536,0.00194847020934,-0.0450592885375,-0.285178178995,-0.878734170236
320,0.503735595797,-0.244569922831,0.753002142744,-0.285178178995,1.75832765536,0.00194847020934,-0.0450592885375,-0.285178178995,-0.878734170236
321,0.503735595797,-0.244569922831,0.753002142744,-0.285178178995,1.75832765536,0.00194847020934,-0.0450592885375,-0.285178178995,-0.878734170236
322,0.43805998885,-0.244569922831,0.753002142744,-2.60153665834,-0.894606367136,-0.0344195578978,-0.0450592885375,-2.60153665834,-0.878734170236
323,0.43805998885,-0.244569922831,0.753002142744,-2.60153665834,-0.894606367136,-0.0344195578978,-0.0450592885375,-2.60153665834,-0.878734170236
324,0.43805998885,-0.244569922831,0.753002142744,-2.60153665834,-0.894606367136,-0.0344195578978,-0.0450592885375,-2.60153665834,-0.878734170236
325,0.43805998885,-0.244569922831,0.753002142744,-2.60153665834,-0.894606367136,-0.0344195578978,-0.0450592885375,-2.60153665834,-0.878734170236
326,-2.71436914461,-0.191643139469,-2.00903760349,0.135977908157,-1.61813382782,-0.107155614112,-0.0450592885375,0.135977908157,-0.895411123686
327,-2.71436914461,-0.191643139469,-2.00903760349,0.135977908157,-1.61813382782,-0.107155614112,-0.0450592885375,0.135977908157,-0.895411123686
328,-2.71436914461,-0.191643139469,-2.00903760349,0.135977908157,-1.61813382782,-0.107155614112,-0.0450592885375,0.135977908157,-0.895411123686
329,-2.71436914461,-0.191643139469,-2.00903760349,0.135977908157,-1.61813382782,-0.107155614112,-0.0450592885375,0.135977908157,-0.895411123686
330,-2.71436914461,-0.191643139469,-2.00903760349,0.135977908157,-1.61813382782,-0.107155614112,-0.0450592885375,0.135977908157,-0.895411123686
331,-2.71436914461,-0.191643139469,-2.00903760349,0.135977908157,-1.61813382782,-0.107155614112,-0.0450592885375,0.135977908157,-0.895411123686
332,-2.71436914461,-0.191643139469,-2.00903760349,0.135977908157,-1.61813382782,-0.107155614112,-0.0450592885375,0.135977908157,-0.895411123686
333,-2.71436914461,-0.191643139469,-2.00903760349,0.135977908157,-1.61813382782,-0.107155614112,-0.0450592885375,0.135977908157,-0.895411123686
334,-2.71436914461,-0.191643139469,-2.00903760349,0.135977908157,-1.61813382782,-0.107155614112,-0.0450592885375,0.135977908157,-0.895411123686
335,-2.71436914461,-0.191643139469,-2.00903760349,0.135977908157,-1.61813382782,-0.107155614112,-0.0450592885375,0.135977908157,-0.895411123686
336,-2.8457203585,-0.191643139469,-2.00903760349,-3.02269274549,-3.06518874918,0.111052554531,-0.0450592885375,-3.02269274549,-0.895411123686
337,-2.8457203585,-0.191643139469,-2.00903760349,-3.02269274549,-3.06518874918,0.111052554531,-0.0450592885375,-3.02269274549,-0.895411123686
338,-2.78004475155,-0.191643139469,-2.00903760349,-0.285178178995,1.75832765536,0.00194847020934,-0.0450592885375,-0.285178178995,-0.895411123686
339,-2.78004475155,-0.191643139469,-2.00903760349,-0.285178178995,1.75832765536,0.00194847020934,-0.0450592885375,-0.285178178995,-0.895411123686
340,0.306708774956,-0.615057406362,0.568866159662,0.135977908157,-1.61813382782,-0.107155614112,-0.0450592885375,0.135977908157,-0.595225961587
341,0.306708774956,-0.615057406362,0.568866159662,0.135977908157,-1.61813382782,-0.107155614112,-0.0450592885375,0.135977908157,-0.595225961587
342,0.306708774956,-0.615057406362,0.568866159662,0.135977908157,-1.61813382782,-0.107155614112,-0.0450592885375,0.135977908157,-0.595225961587
343,0.306708774956,-0.615057406362,0.568866159662,0.135977908157,-1.61813382782,-0.107155614112,-0.0450592885375,0.135977908157,-0.595225961587
344,0.306708774956,-0.615057406362,0.568866159662,0.135977908157,-1.61813382782,-0.107155614112,-0.0450592885375,0.135977908157,-0.595225961587
345,0.241033168009,-0.615057406362,0.568866159662,-3.02269274549,-3.06518874918,0.111052554531,-0.0450592885375,-3.02269274549,-0.595225961587
346,0.241033168009,-0.615057406362,0.568866159662,-3.02269274549,-3.06518874918,0.111052554531,-0.0450592885375,-3.02269274549,-0.595225961587
347,-2.25463989598,-0.562130623,-1.27249367116,0.135977908157,-1.61813382782,-0.107155614112,-0.0450592885375,0.135977908157,-0.611902915037
348,-0.481398508408,-0.509203839639,0.200594193498,0.135977908157,-1.61813382782,-0.107155614112,-0.0450592885375,0.135977908157,-0.628579868487
349,-0.481398508408,-0.509203839639,0.200594193498,0.135977908157,-1.61813382782,-0.107155614112,-0.0450592885375,0.135977908157,-0.628579868487
350,-0.547074115355,-0.509203839639,0.200594193498,-1.1274903533,1.99950347559,0.00194847020934,-0.0450592885375,-1.1274903533,-0.628579868487
351,-0.547074115355,-0.509203839639,0.200594193498,-1.1274903533,1.99950347559,0.00194847020934,-0.0450592885375,-1.1274903533,-0.628579868487
352,-0.612749722302,-0.403350272915,0.0164582104163,0.135977908157,-1.61813382782,-0.107155614112,-0.0450592885375,0.135977908157,-0.695287682287
353,-2.18896428903,-0.350423489554,-1.08835768808,0.135977908157,-1.61813382782,-0.107155614112,-0.0450592885375,0.135977908157,-0.711964635737
354,-2.18896428903,-0.350423489554,-1.08835768808,0.135977908157,-1.61813382782,-0.107155614112,-0.0450592885375,0.135977908157,-0.711964635737
355,-2.18896428903,-0.350423489554,-1.08835768808,0.135977908157,-1.61813382782,-0.107155614112,-0.0450592885375,0.135977908157,-0.711964635737
356,-2.18896428903,-0.350423489554,-1.08835768808,0.135977908157,-1.61813382782,-0.107155614112,-0.0450592885375,0.135977908157,-0.711964635737
357,-2.05761307514,-0.297496706192,-0.904221704994,2.03118030034,2.72303093627,-0.070787586005,-0.0450592885375,2.03118030034,-0.812026356436
358,-2.05761307514,-0.297496706192,-0.904221704994,2.03118030034,2.72303093627,-0.070787586005,-0.0450592885375,2.03118030034,-0.812026356436
359,-2.05761307514,-0.297496706192,-0.904221704994,2.03118030034,2.72303093627,-0.070787586005,-0.0450592885375,2.03118030034,-0.812026356436
360,-2.05761307514,-0.297496706192,-0.904221704994,2.03118030034,2.72303093627,-0.070787586005,-0.0450592885375,2.03118030034,-0.812026356436
361,-2.05761307514,-0.297496706192,-0.904221704994,2.03118030034,2.72303093627,-0.070787586005,-0.0450592885375,2.03118030034,-0.812026356436
362,-2.05761307514,-0.297496706192,-0.904221704994,2.03118030034,2.72303093627,-0.070787586005,-0.0450592885375,2.03118030034,-0.812026356436
363,-2.05761307514,-0.297496706192,-0.904221704994,2.03118030034,2.72303093627,-0.070787586005,-0.0450592885375,2.03118030034,-0.812026356436
364,-2.05761307514,-0.297496706192,-0.904221704994,2.03118030034,2.72303093627,-0.070787586005,-0.0450592885375,2.03118030034,-0.812026356436
365,-2.05761307514,-0.297496706192,-0.904221704994,2.03118030034,2.72303093627,-0.070787586005,-0.0450592885375,2.03118030034,-0.812026356436
366,-2.05761307514,-0.297496706192,-0.904221704994,2.03118030034,2.72303093627,-0.070787586005,-0.0450592885375,2.03118030034,-0.812026356436
367,-2.05761307514,-0.297496706192,-0.904221704994,2.03118030034,2.72303093627,-0.070787586005,-0.0450592885375,2.03118030034,-0.812026356436
368,-2.05761307514,-0.297496706192,-0.904221704994,2.03118030034,2.72303093627,-0.070787586005,-0.0450592885375,2.03118030034,-0.812026356436
369,-2.05761307514,-0.297496706192,-0.904221704994,2.03118030034,2.72303093627,-0.070787586005,-0.0450592885375,2.03118030034,-0.812026356436
370,-2.05761307514,-0.297496706192,-0.904221704994,2.03118030034,2.72303093627,-0.070787586005,-0.0450592885375,2.03118030034,-0.812026356436
371,-2.05761307514,-0.297496706192,-0.904221704994,2.03118030034,2.72303093627,-0.070787586005,-0.0450592885375,2.03118030034,-0.812026356436
372,-2.05761307514,-0.297496706192,-0.904221704994,2.03118030034,2.72303093627,-0.070787586005,-0.0450592885375,2.03118030034,-0.812026356436
373,-2.05761307514,-0.297496706192,-0.904221704994,2.03118030034,2.72303093627,-0.070787586005,-0.0450592885375,2.03118030034,-0.812026356436
374,-2.05761307514,-0.297496706192,-0.904221704994,2.03118030034,2.72303093627,-0.070787586005,-0.0450592885375,2.03118030034,-0.812026356436
375,-2.05761307514,-0.297496706192,-0.904221704994,2.03118030034,2.72303093627,-0.070787586005,-0.0450592885375,2.03118030034,-0.812026356436
376,-2.05761307514,-0.297496706192,-0.904221704994,2.03118030034,2.72303093627,-0.070787586005,-0.0450592885375,2.03118030034,-0.812026356436
377,-2.05761307514,-0.297496706192,-0.904221704994,2.03118030034,2.72303093627,-0.070787586005,-0.0450592885375,2.03118030034,-0.812026356436
378,-2.05761307514,-0.297496706192,-0.904221704994,2.03118030034,2.72303093627,-0.070787586005,-0.0450592885375,2.03118030034,-0.812026356436
379,-2.05761307514,-0.297496706192,-0.904221704994,2.03118030034,2.72303093627,-0.070787586005,-0.0450592885375,2.03118030034,-0.812026356436
380,-2.05761307514,-0.297496706192,-0.904221704994,2.03118030034,2.72303093627,-0.070787586005,-0.0450592885375,2.03118030034,-0.812026356436
381,-2.05761307514,-0.297496706192,-0.904221704994,2.03118030034,2.72303093627,-0.070787586005,-0.0450592885375,2.03118030034,-0.812026356436
382,-2.05761307514,-0.297496706192,-0.904221704994,2.03118030034,2.72303093627,-0.070787586005,-0.0450592885375,2.03118030034,-0.812026356436
383,-2.05761307514,-0.297496706192,-0.904221704994,2.03118030034,2.72303093627,-0.070787586005,-0.0450592885375,2.03118030034,-0.812026356436
384,-2.05761307514,-0.297496706192,-0.904221704994,2.03118030034,2.72303093627,-0.070787586005,-0.0450592885375,2.03118030034,-0.812026356436
385,-2.05761307514,-0.297496706192,-0.904221704994,2.03118030034,2.72303093627,-0.070787586005,-0.0450592885375,2.03118030034,-0.812026356436
386,-2.05761307514,-0.297496706192,-0.904221704994,2.03118030034,2.72303093627,-0.070787586005,-0.0450592885375,2.03118030034,-0.812026356436
387,-2.05761307514,-0.297496706192,-0.904221704994,2.03118030034,2.72303093627,-0.070787586005,-0.0450592885375,2.03118030034,-0.812026356436
388,-2.05761307514,-0.297496706192,-0.904221704994,2.03118030034,2.72303093627,-0.070787586005,-0.0450592885375,2.03118030034,-0.812026356436
389,-2.05761307514,-0.297496706192,-0.904221704994,2.03118030034,2.72303093627,-0.070787586005,-0.0450592885375,2.03118030034,-0.812026356436
390,-2.05761307514,-0.297496706192,-0.904221704994,2.03118030034,2.72303093627,-0.070787586005,-0.0450592885375,2.03118030034,-0.812026356436
391,-2.05761307514,-0.297496706192,-0.904221704994,2.03118030034,2.72303093627,-0.070787586005,-0.0450592885375,2.03118030034,-0.812026356436
392,-2.05761307514,-0.297496706192,-0.904221704994,2.03118030034,2.72303093627,-0.070787586005,-0.0450592885375,2.03118030034,-0.812026356436
393,-2.05761307514,-0.297496706192,-0.904221704994,2.03118030034,2.72303093627,-0.070787586005,-0.0450592885375,2.03118030034,-0.812026356436
394,-2.05761307514,-0.297496706192,-0.904221704994,2.03118030034,2.72303093627,-0.070787586005,-0.0450592885375,2.03118030034,-0.812026356436
395,-2.05761307514,-0.297496706192,-0.904221704994,2.03118030034,2.72303093627,-0.070787586005,-0.0450592885375,2.03118030034,-0.812026356436
396,-2.05761307514,-0.297496706192,-0.904221704994,2.03118030034,2.72303093627,-0.070787586005,-0.0450592885375,2.03118030034,-0.812026356436
397,-2.05761307514,-0.297496706192,-0.904221704994,2.03118030034,2.72303093627,-0.070787586005,-0.0450592885375,2.03118030034,-0.812026356436
398,-2.05761307514,-0.297496706192,-0.904221704994,2.03118030034,2.72303093627,-0.070787586005,-0.0450592885375,2.03118030034,-0.812026356436
399,-2.05761307514,-0.297496706192,-0.904221704994,2.03118030034,2.72303093627,-0.070787586005,-0.0450592885375,2.03118030034,-0.812026356436
400,-2.05761307514,-0.297496706192,-0.904221704994,2.03118030034,2.72303093627,-0.070787586005,-0.0450592885375,2.03118030034,-0.812026356436
401,-2.05761307514,-0.297496706192,-0.904221704994,2.03118030034,2.72303093627,-0.070787586005,-0.0450592885375,2.03118030034,-0.812026356436
402,-2.05761307514,-0.297496706192,-0.904221704994,2.03118030034,2.72303093627,-0.070787586005,-0.0450592885375,2.03118030034,-0.812026356436
403,-2.05761307514,-0.297496706192,-0.904221704994,2.03118030034,2.72303093627,-0.070787586005,-0.0450592885375,2.03118030034,-0.812026356436
404,-2.05761307514,-0.297496706192,-0.904221704994,2.03118030034,2.72303093627,-0.070787586005,-0.0450592885375,2.03118030034,-0.812026356436
405,-2.05761307514,-0.297496706192,-0.904221704994,2.03118030034,2.72303093627,-0.070787586005,-0.0450592885375,2.03118030034,-0.812026356436
406,-2.05761307514,-0.297496706192,-0.904221704994,2.03118030034,2.72303093627,-0.070787586005,-0.0450592885375,2.03118030034,-0.812026356436
407,-2.05761307514,-0.297496706192,-0.904221704994,2.03118030034,2.72303093627,-0.070787586005,-0.0450592885375,2.03118030034,-0.812026356436
408,-2.05761307514,-0.297496706192,-0.904221704994,2.03118030034,2.72303093627,-0.070787586005,-0.0450592885375,2.03118030034,-0.812026356436
409,-2.05761307514,-0.297496706192,-0.904221704994,2.03118030034,2.72303093627,-0.070787586005,-0.0450592885375,2.03118030034,-0.812026356436
410,-2.05761307514,-0.297496706192,-0.904221704994,2.03118030034,2.72303093627,-0.070787586005,-0.0450592885375,2.03118030034,-0.812026356436
411,-2.05761307514,-0.297496706192,-0.904221704994,2.03118030034,2.72303093627,-0.070787586005,-0.0450592885375,2.03118030034,-0.812026356436
412,-2.05761307514,-0.297496706192,-0.904221704994,2.03118030034,2.72303093627,-0.070787586005,-0.0450592885375,2.03118030034,-0.812026356436
413,-2.05761307514,-0.297496706192,-0.904221704994,2.03118030034,2.72303093627,-0.070787586005,-0.0450592885375,2.03118030034,-0.812026356436
414,-2.05761307514,-0.297496706192,-0.904221704994,2.03118030034,2.72303093627,-0.070787586005,-0.0450592885375,2.03118030034,-0.812026356436
415,-2.05761307514,-0.297496706192,-0.904221704994,2.03118030034,2.72303093627,-0.070787586005,-0.0450592885375,2.03118030034,-0.812026356436
416,-2.05761307514,-0.297496706192,-0.904221704994,2.03118030034,2.72303093627,-0.070787586005,-0.0450592885375,2.03118030034,-0.812026356436
417,-2.05761307514,-0.297496706192,-0.904221704994,2.03118030034,2.72303093627,-0.070787586005,-0.0450592885375,2.03118030034,-0.812026356436
418,-2.05761307514,-0.297496706192,-0.904221704994,2.03118030034,2.72303093627,-0.070787586005,-0.0450592885375,2.03118030034,-0.812026356436
419,-2.05761307514,-0.297496706192,-0.904221704994,2.03118030034,2.72303093627,-0.070787586005,-0.0450592885375,2.03118030034,-0.812026356436
420,-2.05761307514,-0.297496706192,-0.904221704994,2.03118030034,2.72303093627,-0.070787586005,-0.0450592885375,2.03118030034,-0.812026356436
421,-2.05761307514,-0.297496706192,-0.904221704994,2.03118030034,2.72303093627,-0.070787586005,-0.0450592885375,2.03118030034,-0.812026356436
422,-2.05761307514,-0.297496706192,-0.904221704994,2.03118030034,2.72303093627,-0.070787586005,-0.0450592885375,2.03118030034,-0.812026356436
423,-2.05761307514,-0.297496706192,-0.904221704994,2.03118030034,2.72303093627,-0.070787586005,-0.0450592885375,2.03118030034,-0.812026356436
424,-2.05761307514,-0.297496706192,-0.904221704994,2.03118030034,2.72303093627,-0.070787586005,-0.0450592885375,2.03118030034,-0.812026356436
425,-2.05761307514,-0.297496706192,-0.904221704994,2.03118030034,2.72303093627,-0.070787586005,-0.0450592885375,2.03118030034,-0.812026356436
426,-2.05761307514,-0.297496706192,-0.904221704994,2.03118030034,2.72303093627,-0.070787586005,-0.0450592885375,2.03118030034,-0.812026356436
427,-2.05761307514,-0.297496706192,-0.904221704994,2.03118030034,2.72303093627,-0.070787586005,-0.0450592885375,2.03118030034,-0.812026356436
428,-2.05761307514,-0.297496706192,-0.904221704994,2.03118030034,2.72303093627,-0.070787586005,-0.0450592885375,2.03118030034,-0.812026356436
429,-2.05761307514,-0.297496706192,-0.904221704994,2.03118030034,2.72303093627,-0.070787586005,-0.0450592885375,2.03118030034,-0.812026356436
430,-2.05761307514,-0.297496706192,-0.904221704994,2.03118030034,2.72303093627,-0.070787586005,-0.0450592885375,2.03118030034,-0.812026356436
431,-2.05761307514,-0.297496706192,-0.904221704994,2.03118030034,2.72303093627,-0.070787586005,-0.0450592885375,2.03118030034,-0.812026356436
432,-2.05761307514,-0.297496706192,-0.904221704994,2.03118030034,2.72303093627,-0.070787586005,-0.0450592885375,2.03118030034,-0.812026356436
433,-2.05761307514,-0.297496706192,-0.904221704994,2.03118030034,2.72303093627,-0.070787586005,-0.0450592885375,2.03118030034,-0.812026356436
434,-2.05761307514,-0.297496706192,-0.904221704994,2.03118030034,2.72303093627,-0.070787586005,-0.0450592885375,2.03118030034,-0.812026356436
435,-2.05761307514,-0.297496706192,-0.904221704994,2.03118030034,2.72303093627,-0.070787586005,-0.0450592885375,2.03118030034,-0.812026356436
436,-2.05761307514,-0.297496706192,-0.904221704994,2.03118030034,2.72303093627,-0.070787586005,-0.0450592885375,2.03118030034,-0.812026356436
437,-2.05761307514,-0.297496706192,-0.904221704994,2.03118030034,2.72303093627,-0.070787586005,-0.0450592885375,2.03118030034,-0.812026356436
438,-2.05761307514,-0.297496706192,-0.904221704994,2.03118030034,2.72303093627,-0.070787586005,-0.0450592885375,2.03118030034,-0.812026356436
439,-2.05761307514,-0.297496706192,-0.904221704994,2.03118030034,2.72303093627,-0.070787586005,-0.0450592885375,2.03118030034,-0.812026356436
440,-2.05761307514,-0.297496706192,-0.904221704994,2.03118030034,2.72303093627,-0.070787586005,-0.0450592885375,2.03118030034,-0.812026356436
441,-2.05761307514,-0.297496706192,-0.904221704994,2.03118030034,2.72303093627,-0.070787586005,-0.0450592885375,2.03118030034,-0.812026356436
442,-2.05761307514,-0.297496706192,-0.904221704994,2.03118030034,2.72303093627,-0.070787586005,-0.0450592885375,2.03118030034,-0.812026356436
443,-2.05761307514,-0.297496706192,-0.904221704994,2.03118030034,2.72303093627,-0.070787586005,-0.0450592885375,2.03118030034,-0.812026356436
444,-2.05761307514,-0.297496706192,-0.904221704994,2.03118030034,2.72303093627,-0.070787586005,-0.0450592885375,2.03118030034,-0.812026356436
445,-2.05761307514,-0.297496706192,-0.904221704994,2.03118030034,2.72303093627,-0.070787586005,-0.0450592885375,2.03118030034,-0.812026356436
446,-2.05761307514,-0.297496706192,-0.904221704994,2.03118030034,2.72303093627,-0.070787586005,-0.0450592885375,2.03118030034,-0.812026356436
447,-2.05761307514,-0.297496706192,-0.904221704994,2.03118030034,2.72303093627,-0.070787586005,-0.0450592885375,2.03118030034,-0.812026356436
448,-2.05761307514,-0.297496706192,-0.904221704994,2.03118030034,2.72303093627,-0.070787586005,-0.0450592885375,2.03118030034,-0.812026356436
449,-2.05761307514,-0.297496706192,-0.904221704994,2.03118030034,2.72303093627,-0.070787586005,-0.0450592885375,2.03118030034,-0.812026356436
450,-2.05761307514,-0.297496706192,-0.904221704994,2.03118030034,2.72303093627,-0.070787586005,-0.0450592885375,2.03118030034,-0.812026356436
451,-2.05761307514,-0.297496706192,-0.904221704994,2.03118030034,2.72303093627,-0.070787586005,-0.0450592885375,2.03118030034,-0.812026356436
452,-2.05761307514,-0.297496706192,-0.904221704994,2.03118030034,2.72303093627,-0.070787586005,-0.0450592885375,2.03118030034,-0.812026356436
453,-2.05761307514,-0.297496706192,-0.904221704994,2.03118030034,2.72303093627,-0.070787586005,-0.0450592885375,2.03118030034,-0.812026356436
454,-2.05761307514,-0.297496706192,-0.904221704994,2.03118030034,2.72303093627,-0.070787586005,-0.0450592885375,2.03118030034,-0.812026356436
455,-2.05761307514,-0.297496706192,-0.904221704994,2.03118030034,2.72303093627,-0.070787586005,-0.0450592885375,2.03118030034,-0.812026356436
456,-2.05761307514,-0.297496706192,-0.904221704994,2.03118030034,2.72303093627,-0.070787586005,-0.0450592885375,2.03118030034,-0.812026356436
457,-2.05761307514,-0.297496706192,-0.904221704994,2.03118030034,2.72303093627,-0.070787586005,-0.0450592885375,2.03118030034,-0.812026356436
458,-2.05761307514,-0.297496706192,-0.904221704994,2.03118030034,2.72303093627,-0.070787586005,-0.0450592885375,2.03118030034,-0.812026356436
459,-2.05761307514,-0.297496706192,-0.904221704994,2.03118030034,2.72303093627,-0.070787586005,-0.0450592885375,2.03118030034,-0.812026356436
460,-2.05761307514,-0.297496706192,-0.904221704994,2.03118030034,2.72303093627,-0.070787586005,-0.0450592885375,2.03118030034,-0.812026356436
461,-2.05761307514,-0.297496706192,-0.904221704994,2.03118030034,2.72303093627,-0.070787586005,-0.0450592885375,2.03118030034,-0.812026356436
462,-2.05761307514,-0.297496706192,-0.904221704994,2.03118030034,2.72303093627,-0.070787586005,-0.0450592885375,2.03118030034,-0.812026356436
463,-2.05761307514,-0.297496706192,-0.904221704994,2.03118030034,2.72303093627,-0.070787586005,-0.0450592885375,2.03118030034,-0.812026356436
464,-2.05761307514,-0.297496706192,-0.904221704994,2.03118030034,2.72303093627,-0.070787586005,-0.0450592885375,2.03118030034,-0.812026356436
465,-2.05761307514,-0.297496706192,-0.904221704994,2.03118030034,2.72303093627,-0.070787586005,-0.0450592885375,2.03118030034,-0.812026356436
466,-2.05761307514,-0.297496706192,-0.904221704994,2.03118030034,2.72303093627,-0.070787586005,-0.0450592885375,2.03118030034,-0.812026356436
467,-2.05761307514,-0.297496706192,-0.904221704994,2.03118030034,2.72303093627,-0.070787586005,-0.0450592885375,2.03118030034,-0.812026356436
468,-2.05761307514,-0.297496706192,-0.904221704994,2.03118030034,2.72303093627,-0.070787586005,-0.0450592885375,2.03118030034,-0.812026356436
469,-2.05761307514,-0.297496706192,-0.904221704994,2.03118030034,2.72303093627,-0.070787586005,-0.0450592885375,2.03118030034,-0.812026356436
470,-2.05761307514,-0.297496706192,-0.904221704994,2.03118030034,2.72303093627,-0.070787586005,-0.0450592885375,2.03118030034,-0.812026356436
471,-2.05761307514,-0.297496706192,-0.904221704994,2.03118030034,2.72303093627,-0.070787586005,-0.0450592885375,2.03118030034,-0.812026356436
472,-2.05761307514,-0.297496706192,-0.904221704994,2.03118030034,2.72303093627,-0.070787586005,-0.0450592885375,2.03118030034,-0.812026356436
473,-2.05761307514,-0.297496706192,-0.904221704994,2.03118030034,2.72303093627,-0.070787586005,-0.0450592885375,2.03118030034,-0.812026356436
474,-2.05761307514,-0.297496706192,-0.904221704994,2.03118030034,2.72303093627,-0.070787586005,-0.0450592885375,2.03118030034,-0.812026356436
475,-2.05761307514,-0.297496706192,-0.904221704994,2.03118030034,2.72303093627,-0.070787586005,-0.0450592885375,2.03118030034,-0.812026356436
476,-2.05761307514,-0.297496706192,-0.904221704994,2.03118030034,2.72303093627,-0.070787586005,-0.0450592885375,2.03118030034,-0.812026356436
477,-2.05761307514,-0.297496706192,-0.904221704994,2.03118030034,2.72303093627,-0.070787586005,-0.0450592885375,2.03118030034,-0.812026356436
478,-2.05761307514,-0.297496706192,-0.904221704994,2.03118030034,2.72303093627,-0.070787586005,-0.0450592885375,2.03118030034,-0.812026356436
479,-2.05761307514,-0.297496706192,-0.904221704994,2.03118030034,2.72303093627,-0.070787586005,-0.0450592885375,2.03118030034,-0.812026356436
480,-2.05761307514,-0.297496706192,-0.904221704994,2.03118030034,2.72303093627,-0.070787586005,-0.0450592885375,2.03118030034,-0.812026356436
481,-2.05761307514,-0.297496706192,-0.904221704994,2.03118030034,2.72303093627,-0.070787586005,-0.0450592885375,2.03118030034,-0.812026356436
482,-2.05761307514,-0.297496706192,-0.904221704994,2.03118030034,2.72303093627,-0.070787586005,-0.0450592885375,2.03118030034,-0.812026356436
483,-2.05761307514,-0.297496706192,-0.904221704994,2.03118030034,2.72303093627,-0.070787586005,-0.0450592885375,2.03118030034,-0.812026356436
484,-2.05761307514,-0.297496706192,-0.904221704994,2.03118030034,2.72303093627,-0.070787586005,-0.0450592885375,2.03118030034,-0.812026356436
485,-2.05761307514,-0.297496706192,-0.904221704994,2.03118030034,2.72303093627,-0.070787586005,-0.0450592885375,2.03118030034,-0.812026356436
486,-2.05761307514,-0.297496706192,-0.904221704994,2.03118030034,2.72303093627,-0.070787586005,-0.0450592885375,2.03118030034,-0.812026356436
487,-2.05761307514,-0.297496706192,-0.904221704994,2.03118030034,2.72303093627,-0.070787586005,-0.0450592885375,2.03118030034,-0.812026356436
488,-2.05761307514,-0.297496706192,-0.904221704994,2.03118030034,2.72303093627,-0.070787586005,-0.0450592885375,2.03118030034,-0.812026356436
489,-2.05761307514,-0.297496706192,-0.904221704994,2.03118030034,2.72303093627,-0.070787586005,-0.0450592885375,2.03118030034,-0.812026356436
490,-2.05761307514,-0.297496706192,-0.904221704994,2.03118030034,2.72303093627,-0.070787586005,-0.0450592885375,2.03118030034,-0.812026356436
491,-2.05761307514,-0.297496706192,-0.904221704994,2.03118030034,2.72303093627,-0.070787586005,-0.0450592885375,2.03118030034,-0.812026356436
492,-2.05761307514,-0.297496706192,-0.904221704994,2.03118030034,2.72303093627,-0.070787586005,-0.0450592885375,2.03118030034,-0.812026356436
493,-2.05761307514,-0.297496706192,-0.904221704994,2.03118030034,2.72303093627,-0.070787586005,-0.0450592885375,2.03118030034,-0.812026356436
494,-2.05761307514,-0.297496706192,-0.904221704994,2.03118030034,2.72303093627,-0.070787586005,-0.0450592885375,2.03118030034,-0.812026356436
495,-2.05761307514,-0.297496706192,-0.904221704994,2.03118030034,2.72303093627,-0.070787586005,-0.0450592885375,2.03118030034,-0.812026356436
496,-2.05761307514,-0.297496706192,-0.904221704994,2.03118030034,2.72303093627,-0.070787586005,-0.0450592885375,2.03118030034,-0.812026356436
497,-2.05761307514,-0.297496706192,-0.904221704994,2.03118030034,2.72303093627,-0.070787586005,-0.0450592885375,2.03118030034,-0.812026356436
498,-2.05761307514,-0.297496706192,-0.904221704994,2.03118030034,2.72303093627,-0.070787586005,-0.0450592885375,2.03118030034,-0.812026356436
499,-2.05761307514,-0.297496706192,-0.904221704994,2.03118030034,2.72303093627,-0.070787586005,-0.0450592885375,2.03118030034,-0.812026356436
500,-2.05761307514,-0.297496706192,-0.904221704994,2.03118030034,2.72303093627,-0.070787586005,-0.0450592885375,2.03118030034,-0.812026356436
501,-2.05761307514,-0.297496706192,-0.904221704994,2.03118030034,2.72303093627,-0.070787586005,-0.0450592885375,2.03118030034,-0.812026356436
502,-2.05761307514,-0.297496706192,-0.904221704994,2.03118030034,2.72303093627,-0.070787586005,-0.0450592885375,2.03118030034,-0.812026356436
503,-2.05761307514,-0.297496706192,-0.904221704994,2.03118030034,2.72303093627,-0.070787586005,-0.0450592885375,2.03118030034,-0.812026356436
504,-2.05761307514,-0.297496706192,-0.904221704994,2.03118030034,2.72303093627,-0.070787586005,-0.0450592885375,2.03118030034,-0.812026356436
505,-2.05761307514,-0.297496706192,-0.904221704994,2.03118030034,2.72303093627,-0.070787586005,-0.0450592885375,2.03118030034,-0.812026356436
506,-2.05761307514,-0.297496706192,-0.904221704994,2.03118030034,2.72303093627,-0.070787586005,-0.0450592885375,2.03118030034,-0.812026356436
507,-2.05761307514,-0.297496706192,-0.904221704994,2.03118030034,2.72303093627,-0.070787586005,-0.0450592885375,2.03118030034,-0.812026356436
508,-2.05761307514,-0.297496706192,-0.904221704994,2.03118030034,2.72303093627,-0.070787586005,-0.0450592885375,2.03118030034,-0.812026356436
509,-2.05761307514,-0.297496706192,-0.904221704994,2.03118030034,2.72303093627,-0.070787586005,-0.0450592885375,2.03118030034,-0.812026356436
510,-2.05761307514,-0.297496706192,-0.904221704994,2.03118030034,2.72303093627,-0.070787586005,-0.0450592885375,2.03118030034,-0.812026356436
511,-2.05761307514,-0.297496706192,-0.904221704994,2.03118030034,2.72303093627,-0.070787586005,-0.0450592885375,2.03118030034,-0.812026356436
512,-2.05761307514,-0.297496706192,-0.904221704994,2.03118030034,2.72303093627,-0.070787586005,-0.0450592885375,2.03118030034,-0.812026356436
513,-2.05761307514,-0.297496706192,-0.904221704994,2.03118030034,2.72303093627,-0.070787586005,-0.0450592885375,2.03118030034,-0.812026356436
514,-2.05761307514,-0.297496706192,-0.904221704994,2.03118030034,2.72303093627,-0.070787586005,-0.0450592885375,2.03118030034,-0.812026356436
515,-2.05761307514,-0.297496706192,-0.904221704994,2.03118030034,2.72303093627,-0.070787586005,-0.0450592885375,2.03118030034,-0.812026356436
516,-2.05761307514,-0.297496706192,-0.904221704994,2.03118030034,2.72303093627,-0.070787586005,-0.0450592885375,2.03118030034,-0.812026356436
517,-2.05761307514,-0.297496706192,-0.904221704994,2.03118030034,2.72303093627,-0.070787586005,-0.0450592885375,2.03118030034,-0.812026356436
518,-2.05761307514,-0.297496706192,-0.904221704994,2.03118030034,2.72303093627,-0.070787586005,-0.0450592885375,2.03118030034,-0.812026356436
519,-2.05761307514,-0.297496706192,-0.904221704994,2.03118030034,2.72303093627,-0.070787586005,-0.0450592885375,2.03118030034,-0.812026356436
520,-2.05761307514,-0.297496706192,-0.904221704994,2.03118030034,2.72303093627,-0.070787586005,-0.0450592885375,2.03118030034,-0.812026356436
521,-2.05761307514,-0.297496706192,-0.904221704994,2.03118030034,2.72303093627,-0.070787586005,-0.0450592885375,2.03118030034,-0.812026356436
522,-2.05761307514,-0.297496706192,-0.904221704994,2.03118030034,2.72303093627,-0.070787586005,-0.0450592885375,2.03118030034,-0.812026356436
523,-2.05761307514,-0.297496706192,-0.904221704994,2.03118030034,2.72303093627,-0.070787586005,-0.0450592885375,2.03118030034,-0.812026356436
524,-2.05761307514,-0.297496706192,-0.904221704994,2.03118030034,2.72303093627,-0.070787586005,-0.0450592885375,2.03118030034,-0.812026356436
525,-2.05761307514,-0.297496706192,-0.904221704994,2.03118030034,2.72303093627,-0.070787586005,-0.0450592885375,2.03118030034,-0.812026356436
526,-2.05761307514,-0.297496706192,-0.904221704994,2.03118030034,2.72303093627,-0.070787586005,-0.0450592885375,2.03118030034,-0.812026356436
527,-2.05761307514,-0.297496706192,-0.904221704994,2.03118030034,2.72303093627,-0.070787586005,-0.0450592885375,2.03118030034,-0.812026356436
528,-2.05761307514,-0.297496706192,-0.904221704994,2.03118030034,2.72303093627,-0.070787586005,-0.0450592885375,2.03118030034,-0.812026356436
529,-2.05761307514,-0.297496706192,-0.904221704994,2.03118030034,2.72303093627,-0.070787586005,-0.0450592885375,2.03118030034,-0.812026356436
530,-2.05761307514,-0.297496706192,-0.904221704994,2.03118030034,2.72303093627,-0.070787586005,-0.0450592885375,2.03118030034,-0.812026356436
531,-2.05761307514,-0.297496706192,-0.904221704994,2.03118030034,2.72303093627,-0.070787586005,-0.0450592885375,2.03118030034,-0.812026356436
532,-2.05761307514,-0.297496706192,-0.904221704994,2.03118030034,2.72303093627,-0.070787586005,-0.0450592885375,2.03118030034,-0.812026356436
533,-2.05761307514,-0.297496706192,-0.904221704994,2.03118030034,2.72303093627,-0.070787586005,-0.0450592885375,2.03118030034,-0.812026356436
534,-2.05761307514,-0.297496706192,-0.904221704994,2.03118030034,2.72303093627,-0.070787586005,-0.0450592885375,2.03118030034,-0.812026356436
535,-2.05761307514,-0.297496706192,-0.904221704994,2.03118030034,2.72303093627,-0.070787586005,-0.0450592885375,2.03118030034,-0.812026356436
536,-2.05761307514,-0.297496706192,-0.904221704994,2.03118030034,2.72303093627,-0.070787586005,-0.0450592885375,2.03118030034,-0.812026356436
537,-2.05761307514,-0.297496706192,-0.904221704994,2.03118030034,2.72303093627,-0.070787586005,-0.0450592885375,2.03118030034,-0.812026356436
538,-2.05761307514,-0.297496706192,-0.904221704994,2.03118030034,2.72303093627,-0.070787586005,-0.0450592885375,2.03118030034,-0.812026356436
539,-2.05761307514,-0.297496706192,-0.904221704994,2.03118030034,2.72303093627,-0.070787586005,-0.0450592885375,2.03118030034,-0.812026356436
540,-2.05761307514,-0.297496706192,-0.904221704994,2.03118030034,2.72303093627,-0.070787586005,-0.0450592885375,2.03118030034,-0.812026356436
541,-2.05761307514,-0.297496706192,-0.904221704994,2.03118030034,2.72303093627,-0.070787586005,-0.0450592885375,2.03118030034,-0.812026356436
542,-2.05761307514,-0.297496706192,-0.904221704994,2.03118030034,2.72303093627,-0.070787586005,-0.0450592885375,2.03118030034,-0.812026356436
543,-2.05761307514,-0.297496706192,-0.904221704994,2.03118030034,2.72303093627,-0.070787586005,-0.0450592885375,2.03118030034,-0.812026356436
544,-2.05761307514,-0.297496706192,-0.904221704994,2.03118030034,2.72303093627,-0.070787586005,-0.0450592885375,2.03118030034,-0.812026356436
545,-2.05761307514,-0.297496706192,-0.904221704994,2.03118030034,2.72303093627,-0.070787586005,-0.0450592885375,2.03118030034,-0.812026356436
546,-2.05761307514,-0.297496706192,-0.904221704994,2.03118030034,2.72303093627,-0.070787586005,-0.0450592885375,2.03118030034,-0.812026356436
547,-2.05761307514,-0.297496706192,-0.904221704994,2.03118030034,2.72303093627,-0.070787586005,-0.0450592885375,2.03118030034,-0.812026356436
548,-2.05761307514,-0.297496706192,-0.904221704994,2.03118030034,2.72303093627,-0.070787586005,-0.0450592885375,2.03118030034,-0.812026356436
549,-2.05761307514,-0.297496706192,-0.904221704994,2.03118030034,2.72303093627,-0.070787586005,-0.0450592885375,2.03118030034,-0.812026356436
550,-2.05761307514,-0.297496706192,-0.904221704994,2.03118030034,2.72303093627,-0.070787586005,-0.0450592885375,2.03118030034,-0.812026356436
551,-2.05761307514,-0.297496706192,-0.904221704994,2.03118030034,2.72303093627,-0.070787586005,-0.0450592885375,2.03118030034,-0.812026356436
552,-2.05761307514,-0.297496706192,-0.904221704994,2.03118030034,2.72303093627,-0.070787586005,-0.0450592885375,2.03118030034,-0.812026356436
553,-2.05761307514,-0.297496706192,-0.904221704994,2.03118030034,2.72303093627,-0.070787586005,-0.0450592885375,2.03118030034,-0.812026356436
554,-2.05761307514,-0.297496706192,-0.904221704994,2.03118030034,2.72303093627,-0.070787586005,-0.0450592885375,2.03118030034,-0.812026356436
555,-2.05761307514,-0.297496706192,-0.904221704994,2.03118030034,2.72303093627,-0.070787586005,-0.0450592885375,2.03118030034,-0.812026356436
556,-2.05761307514,-0.297496706192,-0.904221704994,2.03118030034,2.72303093627,-0.070787586005,-0.0450592885375,2.03118030034,-0.812026356436
557,-2.05761307514,-0.297496706192,-0.904221704994,2.03118030034,2.72303093627,-0.070787586005,-0.0450592885375,2.03118030034,-0.812026356436
558,-2.05761307514,-0.297496706192,-0.904221704994,2.03118030034,2.72303093627,-0.070787586005,-0.0450592885375,2.03118030034,-0.812026356436
559,-2.05761307514,-0.297496706192,-0.904221704994,2.03118030034,2.72303093627,-0.070787586005,-0.0450592885375,2.03118030034,-0.812026356436
560,-2.05761307514,-0.297496706192,-0.904221704994,2.03118030034,2.72303093627,-0.070787586005,-0.0450592885375,2.03118030034,-0.812026356436
561,-2.05761307514,-0.297496706192,-0.904221704994,2.03118030034,2.72303093627,-0.070787586005,-0.0450592885375,2.03118030034,-0.812026356436
562,-2.05761307514,-0.297496706192,-0.904221704994,2.03118030034,2.72303093627,-0.070787586005,-0.0450592885375,2.03118030034,-0.812026356436
563,-2.05761307514,-0.297496706192,-0.904221704994,2.03118030034,2.72303093627,-0.070787586005,-0.0450592885375,2.03118030034,-0.812026356436
564,-2.05761307514,-0.297496706192,-0.904221704994,2.03118030034,2.72303093627,-0.070787586005,-0.0450592885375,2.03118030034,-0.812026356436
565,-2.05761307514,-0.297496706192,-0.904221704994,2.03118030034,2.72303093627,-0.070787586005,-0.0450592885375,2.03118030034,-0.812026356436
566,-2.05761307514,-0.297496706192,-0.904221704994,2.03118030034,2.72303093627,-0.070787586005,-0.0450592885375,2.03118030034,-0.812026356436
567,-2.05761307514,-0.297496706192,-0.904221704994,2.03118030034,2.72303093627,-0.070787586005,-0.0450592885375,2.03118030034,-0.812026356436
568,-2.05761307514,-0.297496706192,-0.904221704994,2.03118030034,2.72303093627,-0.070787586005,-0.0450592885375,2.03118030034,-0.812026356436
569,-2.05761307514,-0.297496706192,-0.904221704994,2.03118030034,2.72303093627,-0.070787586005,-0.0450592885375,2.03118030034,-0.812026356436
570,-2.05761307514,-0.297496706192,-0.904221704994,2.03118030034,2.72303093627,-0.070787586005,-0.0450592885375,2.03118030034,-0.812026356436
571,-2.05761307514,-0.297496706192,-0.904221704994,2.03118030034,2.72303093627,-0.070787586005,-0.0450592885375,2.03118030034,-0.812026356436
572,-2.05761307514,-0.297496706192,-0.904221704994,2.03118030034,2.72303093627,-0.070787586005,-0.0450592885375,2.03118030034,-0.812026356436
573,-2.05761307514,-0.297496706192,-0.904221704994,2.03118030034,2.72303093627,-0.070787586005,-0.0450592885375,2.03118030034,-0.812026356436
574,-2.05761307514,-0.297496706192,-0.904221704994,2.03118030034,2.72303093627,-0.070787586005,-0.0450592885375,2.03118030034,-0.812026356436
575,-2.05761307514,-0.297496706192,-0.904221704994,2.03118030034,2.72303093627,-0.070787586005,-0.0450592885375,2.03118030034,-0.812026356436
576,-2.05761307514,-0.297496706192,-0.904221704994,2.03118030034,2.72303093627,-0.070787586005,-0.0450592885375,2.03118030034,-0.812026356436
577,-2.05761307514,-0.297496706192,-0.904221704994,2.03118030034,2.72303093627,-0.070787586005,-0.0450592885375,2.03118030034,-0.812026356436
578,-2.05761307514,-0.297496706192,-0.904221704994,2.03118030034,2.72303093627,-0.070787586005,-0.0450592885375,2.03118030034,-0.812026356436
579,-2.05761307514,-0.297496706192,-0.904221704994,2.03118030034,2.72303093627,-0.070787586005,-0.0450592885375,2.03118030034,-0.812026356436
580,-2.05761307514,-0.297496706192,-0.904221704994,2.03118030034,2.72303093627,-0.070787586005,-0.0450592885375,2.03118030034,-0.812026356436
581,-2.05761307514,-0.297496706192,-0.904221704994,2.03118030034,2.72303093627,-0.070787586005,-0.0450592885375,2.03118030034,-0.812026356436
582,-2.05761307514,-0.297496706192,-0.904221704994,2.03118030034,2.72303093627,-0.070787586005,-0.0450592885375,2.03118030034,-0.812026356436
583,-2.05761307514,-0.297496706192,-0.904221704994,2.03118030034,2.72303093627,-0.070787586005,-0.0450592885375,2.03118030034,-0.812026356436
584,-2.05761307514,-0.297496706192,-0.904221704994,2.03118030034,2.72303093627,-0.070787586005,-0.0450592885375,2.03118030034,-0.812026356436
585,-2.05761307514,-0.297496706192,-0.904221704994,2.03118030034,2.72303093627,-0.070787586005,-0.0450592885375,2.03118030034,-0.812026356436
586,-2.05761307514,-0.297496706192,-0.904221704994,2.03118030034,2.72303093627,-0.070787586005,-0.0450592885375,2.03118030034,-0.812026356436
587,-2.05761307514,-0.297496706192,-0.904221704994,2.03118030034,2.72303093627,-0.070787586005,-0.0450592885375,2.03118030034,-0.812026356436
588,-2.05761307514,-0.297496706192,-0.904221704994,2.03118030034,2.72303093627,-0.070787586005,-0.0450592885375,2.03118030034,-0.812026356436
589,-2.05761307514,-0.297496706192,-0.904221704994,2.03118030034,2.72303093627,-0.070787586005,-0.0450592885375,2.03118030034,-0.812026356436
590,-2.05761307514,-0.297496706192,-0.904221704994,2.03118030034,2.72303093627,-0.070787586005,-0.0450592885375,2.03118030034,-0.812026356436
591,-2.05761307514,-0.297496706192,-0.904221704994,2.03118030034,2.72303093627,-0.070787586005,-0.0450592885375,2.03118030034,-0.812026356436
592,-2.05761307514,-0.297496706192,-0.904221704994,2.03118030034,2.72303093627,-0.070787586005,-0.0450592885375,2.03118030034,-0.812026356436
593,-2.05761307514,-0.297496706192,-0.904221704994,2.03118030034,2.72303093627,-0.070787586005,-0.0450592885375,2.03118030034,-0.812026356436
594,-2.05761307514,-0.297496706192,-0.904221704994,2.03118030034,2.72303093627,-0.070787586005,-0.0450592885375,2.03118030034,-0.812026356436
595,-2.05761307514,-0.297496706192,-0.904221704994,2.03118030034,2.72303093627,-0.070787586005,-0.0450592885375,2.03118030034,-0.812026356436
596,-2.05761307514,-0.297496706192,-0.904221704994,2.03118030034,2.72303093627,-0.070787586005,-0.0450592885375,2.03118030034,-0.812026356436
597,-2.05761307514,-0.297496706192,-0.904221704994,2.03118030034,2.72303093627,-0.070787586005,-0.0450592885375,2.03118030034,-0.812026356436
598,-2.05761307514,-0.297496706192,-0.904221704994,2.03118030034,2.72303093627,-0.070787586005,-0.0450592885375,2.03118030034,-0.812026356436
599,-2.05761307514,-0.297496706192,-0.904221704994,2.03118030034,2.72303093627,-0.070787586005,-0.0450592885375,2.03118030034,-0.812026356436
600,-2.05761307514,-0.297496706192,-0.904221704994,2.03118030034,2.72303093627,-0.070787586005,-0.0450592885375,2.03118030034,-0.812026356436
601,-2.05761307514,-0.297496706192,-0.904221704994,2.03118030034,2.72303093627,-0.070787586005,-0.0450592885375,2.03118030034,-0.812026356436
602,-2.05761307514,-0.297496706192,-0.904221704994,2.03118030034,2.72303093627,-0.070787586005,-0.0450592885375,2.03118030034,-0.812026356436
603,-2.05761307514,-0.297496706192,-0.904221704994,2.03118030034,2.72303093627,-0.070787586005,-0.0450592885375,2.03118030034,-0.812026356436
604,-2.05761307514,-0.297496706192,-0.904221704994,2.03118030034,2.72303093627,-0.070787586005,-0.0450592885375,2.03118030034,-0.812026356436
605,-2.05761307514,-0.297496706192,-0.904221704994,2.03118030034,2.72303093627,-0.070787586005,-0.0450592885375,2.03118030034,-0.812026356436
606,-2.05761307514,-0.297496706192,-0.904221704994,2.03118030034,2.72303093627,-0.070787586005,-0.0450592885375,2.03118030034,-0.812026356436
607,-2.05761307514,-0.297496706192,-0.904221704994,2.03118030034,2.72303093627,-0.070787586005,-0.0450592885375,2.03118030034,-0.812026356436
608,-2.05761307514,-0.297496706192,-0.904221704994,2.03118030034,2.72303093627,-0.070787586005,-0.0450592885375,2.03118030034,-0.812026356436
609,-2.05761307514,-0.297496706192,-0.904221704994,2.03118030034,2.72303093627,-0.070787586005,-0.0450592885375,2.03118030034,-0.812026356436
610,-2.05761307514,-0.297496706192,-0.904221704994,2.03118030034,2.72303093627,-0.070787586005,-0.0450592885375,2.03118030034,-0.812026356436
611,-2.05761307514,-0.297496706192,-0.904221704994,2.03118030034,2.72303093627,-0.070787586005,-0.0450592885375,2.03118030034,-0.812026356436
612,-2.05761307514,-0.297496706192,-0.904221704994,2.03118030034,2.72303093627,-0.070787586005,-0.0450592885375,2.03118030034,-0.812026356436
613,-2.05761307514,-0.297496706192,-0.904221704994,2.03118030034,2.72303093627,-0.070787586005,-0.0450592885375,2.03118030034,-0.812026356436
614,-2.05761307514,-0.297496706192,-0.904221704994,2.03118030034,2.72303093627,-0.070787586005,-0.0450592885375,2.03118030034,-0.812026356436
615,-2.05761307514,-0.297496706192,-0.904221704994,2.03118030034,2.72303093627,-0.070787586005,-0.0450592885375,2.03118030034,-0.812026356436
616,-2.05761307514,-0.297496706192,-0.904221704994,2.03118030034,2.72303093627,-0.070787586005,-0.0450592885375,2.03118030034,-0.812026356436
617,-2.05761307514,-0.297496706192,-0.904221704994,2.03118030034,2.72303093627,-0.070787586005,-0.0450592885375,2.03118030034,-0.812026356436
618,-2.05761307514,-0.297496706192,-0.904221704994,2.03118030034,2.72303093627,-0.070787586005,-0.0450592885375,2.03118030034,-0.812026356436
619,-2.05761307514,-0.297496706192,-0.904221704994,2.03118030034,2.72303093627,-0.070787586005,-0.0450592885375,2.03118030034,-0.812026356436
620,-2.05761307514,-0.297496706192,-0.904221704994,2.03118030034,2.72303093627,-0.070787586005,-0.0450592885375,2.03118030034,-0.812026356436
621,-2.05761307514,-0.297496706192,-0.904221704994,2.03118030034,2.72303093627,-0.070787586005,-0.0450592885375,2.03118030034,-0.812026356436
622,-2.05761307514,-0.297496706192,-0.904221704994,2.03118030034,2.72303093627,-0.070787586005,-0.0450592885375,2.03118030034,-0.812026356436
623,-2.05761307514,-0.297496706192,-0.904221704994,2.03118030034,2.72303093627,-0.070787586005,-0.0450592885375,2.03118030034,-0.812026356436
624,-2.05761307514,-0.297496706192,-0.904221704994,2.03118030034,2.72303093627,-0.070787586005,-0.0450592885375,2.03118030034,-0.812026356436
625,-2.05761307514,-0.297496706192,-0.904221704994,2.03118030034,2.72303093627,-0.070787586005,-0.0450592885375,2.03118030034,-0.812026356436
626,-2.05761307514,-0.297496706192,-0.904221704994,2.03118030034,2.72303093627,-0.070787586005,-0.0450592885375,2.03118030034,-0.812026356436
627,-2.05761307514,-0.297496706192,-0.904221704994,2.03118030034,2.72303093627,-0.070787586005,-0.0450592885375,2.03118030034,-0.812026356436
628,-2.05761307514,-0.297496706192,-0.904221704994,2.03118030034,2.72303093627,-0.070787586005,-0.0450592885375,2.03118030034,-0.812026356436
629,-2.05761307514,-0.297496706192,-0.904221704994,2.03118030034,2.72303093627,-0.070787586005,-0.0450592885375,2.03118030034,-0.812026356436
630,-2.05761307514,-0.297496706192,-0.904221704994,2.03118030034,2.72303093627,-0.070787586005,-0.0450592885375,2.03118030034,-0.812026356436
631,-2.05761307514,-0.297496706192,-0.904221704994,2.03118030034,2.72303093627,-0.070787586005,-0.0450592885375,2.03118030034,-0.812026356436
632,-2.05761307514,-0.297496706192,-0.904221704994,2.03118030034,2.72303093627,-0.070787586005,-0.0450592885375,2.03118030034,-0.812026356436
633,-2.05761307514,-0.297496706192,-0.904221704994,2.03118030034,2.72303093627,-0.070787586005,-0.0450592885375,2.03118030034,-0.812026356436
634,-2.05761307514,-0.297496706192,-0.904221704994,2.03118030034,2.72303093627,-0.070787586005,-0.0450592885375,2.03118030034,-0.812026356436
635,-2.05761307514,-0.297496706192,-0.904221704994,2.03118030034,2.72303093627,-0.070787586005,-0.0450592885375,2.03118030034,-0.812026356436
636,-2.05761307514,-0.297496706192,-0.904221704994,2.03118030034,2.72303093627,-0.070787586005,-0.0450592885375,2.03118030034,-0.812026356436
637,-2.05761307514,-0.297496706192,-0.904221704994,2.03118030034,2.72303093627,-0.070787586005,-0.0450592885375,2.03118030034,-0.812026356436
638,-2.05761307514,-0.297496706192,-0.904221704994,2.03118030034,2.72303093627,-0.070787586005,-0.0450592885375,2.03118030034,-0.812026356436
639,-2.05761307514,-0.297496706192,-0.904221704994,2.03118030034,2.72303093627,-0.070787586005,-0.0450592885375,2.03118030034,-0.812026356436
640,-2.05761307514,-0.297496706192,-0.904221704994,2.03118030034,2.72303093627,-0.070787586005,-0.0450592885375,2.03118030034,-0.812026356436
641,-2.05761307514,-0.297496706192,-0.904221704994,2.03118030034,2.72303093627,-0.070787586005,-0.0450592885375,2.03118030034,-0.812026356436
642,-2.05761307514,-0.297496706192,-0.904221704994,2.03118030034,2.72303093627,-0.070787586005,-0.0450592885375,2.03118030034,-0.812026356436
643,-2.05761307514,-0.297496706192,-0.904221704994,2.03118030034,2.72303093627,-0.070787586005,-0.0450592885375,2.03118030034,-0.812026356436
644,-2.05761307514,-0.297496706192,-0.904221704994,2.03118030034,2.72303093627,-0.070787586005,-0.0450592885375,2.03118030034,-0.812026356436
645,-2.05761307514,-0.297496706192,-0.904221704994,2.03118030034,2.72303093627,-0.070787586005,-0.0450592885375,2.03118030034,-0.812026356436
646,-2.05761307514,-0.297496706192,-0.904221704994,2.03118030034,2.72303093627,-0.070787586005,-0.0450592885375,2.03118030034,-0.812026356436
647,-2.05761307514,-0.297496706192,-0.904221704994,2.03118030034,2.72303093627,-0.070787586005,-0.0450592885375,2.03118030034,-0.812026356436
648,-2.05761307514,-0.297496706192,-0.904221704994,2.03118030034,2.72303093627,-0.070787586005,-0.0450592885375,2.03118030034,-0.812026356436
649,-2.05761307514,-0.297496706192,-0.904221704994,2.03118030034,2.72303093627,-0.070787586005,-0.0450592885375,2.03118030034,-0.812026356436
650,-2.05761307514,-0.297496706192,-0.904221704994,2.03118030034,2.72303093627,-0.070787586005,-0.0450592885375,2.03118030034,-0.812026356436
651,-2.05761307514,-0.297496706192,-0.904221704994,2.03118030034,2.72303093627,-0.070787586005,-0.0450592885375,2.03118030034,-0.812026356436
652,-2.05761307514,-0.297496706192,-0.904221704994,2.03118030034,2.72303093627,-0.070787586005,-0.0450592885375,2.03118030034,-0.812026356436
653,-2.05761307514,-0.297496706192,-0.904221704994,2.03118030034,2.72303093627,-0.070787586005,-0.0450592885375,2.03118030034,-0.812026356436
654,-2.05761307514,-0.297496706192,-0.904221704994,2.03118030034,2.72303093627,-0.070787586005,-0.0450592885375,2.03118030034,-0.812026356436
655,-2.05761307514,-0.297496706192,-0.904221704994,2.03118030034,2.72303093627,-0.070787586005,-0.0450592885375,2.03118030034,-0.812026356436
656,-2.05761307514,-0.297496706192,-0.904221704994,2.03118030034,2.72303093627,-0.070787586005,-0.0450592885375,2.03118030034,-0.812026356436
657,-2.05761307514,-0.297496706192,-0.904221704994,2.03118030034,2.72303093627,-0.070787586005,-0.0450592885375,2.03118030034,-0.812026356436
658,-2.05761307514,-0.297496706192,-0.904221704994,2.03118030034,2.72303093627,-0.070787586005,-0.0450592885375,2.03118030034,-0.812026356436
659,-2.05761307514,-0.297496706192,-0.904221704994,2.03118030034,2.72303093627,-0.070787586005,-0.0450592885375,2.03118030034,-0.812026356436
660,-2.05761307514,-0.297496706192,-0.904221704994,2.03118030034,2.72303093627,-0.070787586005,-0.0450592885375,2.03118030034,-0.812026356436
661,-2.05761307514,-0.297496706192,-0.904221704994,2.03118030034,2.72303093627,-0.070787586005,-0.0450592885375,2.03118030034,-0.812026356436
662,-2.05761307514,-0.297496706192,-0.904221704994,2.03118030034,2.72303093627,-0.070787586005,-0.0450592885375,2.03118030034,-0.812026356436
663,-2.05761307514,-0.297496706192,-0.904221704994,2.03118030034,2.72303093627,-0.070787586005,-0.0450592885375,2.03118030034,-0.812026356436
664,-2.05761307514,-0.297496706192,-0.904221704994,2.03118030034,2.72303093627,-0.070787586005,-0.0450592885375,2.03118030034,-0.812026356436
665,-2.05761307514,-0.297496706192,-0.904221704994,2.03118030034,2.72303093627,-0.070787586005,-0.0450592885375,2.03118030034,-0.812026356436
666,-2.05761307514,-0.297496706192,-0.904221704994,2.03118030034,2.72303093627,-0.070787586005,-0.0450592885375,2.03118030034,-0.812026356436
667,-2.05761307514,-0.297496706192,-0.904221704994,2.03118030034,2.72303093627,-0.070787586005,-0.0450592885375,2.03118030034,-0.812026356436
668,-2.05761307514,-0.297496706192,-0.904221704994,2.03118030034,2.72303093627,-0.070787586005,-0.0450592885375,2.03118030034,-0.812026356436
669,-2.05761307514,-0.297496706192,-0.904221704994,2.03118030034,2.72303093627,-0.070787586005,-0.0450592885375,2.03118030034,-0.812026356436
670,-2.05761307514,-0.297496706192,-0.904221704994,2.03118030034,2.72303093627,-0.070787586005,-0.0450592885375,2.03118030034,-0.812026356436
671,-2.05761307514,-0.297496706192,-0.904221704994,2.03118030034,2.72303093627,-0.070787586005,-0.0450592885375,2.03118030034,-0.812026356436
672,-2.05761307514,-0.297496706192,-0.904221704994,2.03118030034,2.72303093627,-0.070787586005,-0.0450592885375,2.03118030034,-0.812026356436
673,-2.05761307514,-0.297496706192,-0.904221704994,2.03118030034,2.72303093627,-0.070787586005,-0.0450592885375,2.03118030034,-0.812026356436
674,-2.05761307514,-0.297496706192,-0.904221704994,2.03118030034,2.72303093627,-0.070787586005,-0.0450592885375,2.03118030034,-0.812026356436
675,-2.05761307514,-0.297496706192,-0.904221704994,2.03118030034,2.72303093627,-0.070787586005,-0.0450592885375,2.03118030034,-0.812026356436
676,-2.05761307514,-0.297496706192,-0.904221704994,2.03118030034,2.72303093627,-0.070787586005,-0.0450592885375,2.03118030034,-0.812026356436
677,-2.05761307514,-0.297496706192,-0.904221704994,2.03118030034,2.72303093627,-0.070787586005,-0.0450592885375,2.03118030034,-0.812026356436
678,-2.05761307514,-0.297496706192,-0.904221704994,2.03118030034,2.72303093627,-0.070787586005,-0.0450592885375,2.03118030034,-0.812026356436
679,-2.05761307514,-0.297496706192,-0.904221704994,2.03118030034,2.72303093627,-0.070787586005,-0.0450592885375,2.03118030034,-0.812026356436
680,-2.05761307514,-0.297496706192,-0.904221704994,2.03118030034,2.72303093627,-0.070787586005,-0.0450592885375,2.03118030034,-0.812026356436
681,-2.05761307514,-0.297496706192,-0.904221704994,2.03118030034,2.72303093627,-0.070787586005,-0.0450592885375,2.03118030034,-0.812026356436
682,-2.05761307514,-0.297496706192,-0.904221704994,2.03118030034,2.72303093627,-0.070787586005,-0.0450592885375,2.03118030034,-0.812026356436
683,-2.05761307514,-0.297496706192,-0.904221704994,2.03118030034,2.72303093627,-0.070787586005,-0.0450592885375,2.03118030034,-0.812026356436
684,-2.05761307514,-0.297496706192,-0.904221704994,2.03118030034,2.72303093627,-0.070787586005,-0.0450592885375,2.03118030034,-0.812026356436
685,-2.05761307514,-0.297496706192,-0.904221704994,2.03118030034,2.72303093627,-0.070787586005,-0.0450592885375,2.03118030034,-0.812026356436
686,-2.05761307514,-0.297496706192,-0.904221704994,2.03118030034,2.72303093627,-0.070787586005,-0.0450592885375,2.03118030034,-0.812026356436
687,-2.05761307514,-0.297496706192,-0.904221704994,2.03118030034,2.72303093627,-0.070787586005,-0.0450592885375,2.03118030034,-0.812026356436
688,-2.05761307514,-0.297496706192,-0.904221704994,2.03118030034,2.72303093627,-0.070787586005,-0.0450592885375,2.03118030034,-0.812026356436
689,-2.05761307514,-0.297496706192,-0.904221704994,2.03118030034,2.72303093627,-0.070787586005,-0.0450592885375,2.03118030034,-0.812026356436
690,-2.05761307514,-0.297496706192,-0.904221704994,2.03118030034,2.72303093627,-0.070787586005,-0.0450592885375,2.03118030034,-0.812026356436
691,-2.05761307514,-0.297496706192,-0.904221704994,2.03118030034,2.72303093627,-0.070787586005,-0.0450592885375,2.03118030034,-0.812026356436
692,-2.05761307514,-0.297496706192,-0.904221704994,2.03118030034,2.72303093627,-0.070787586005,-0.0450592885375,2.03118030034,-0.812026356436
693,-2.05761307514,-0.297496706192,-0.904221704994,2.03118030034,2.72303093627,-0.070787586005,-0.0450592885375,2.03118030034,-0.812026356436
694,-2.05761307514,-0.297496706192,-0.904221704994,2.03118030034,2.72303093627,-0.070787586005,-0.0450592885375,2.03118030034,-0.812026356436
695,-2.05761307514,-0.297496706192,-0.904221704994,2.03118030034,2.72303093627,-0.070787586005,-0.0450592885375,2.03118030034,-0.812026356436
696,-2.12328868208,-0.297496706192,-0.904221704994,1.82060225677,2.9642067565,-0.070787586005,-0.0450592885375,1.82060225677,-0.812026356436
697,-2.12328868208,-0.297496706192,-0.904221704994,1.82060225677,2.9642067565,-0.070787586005,-0.0450592885375,1.82060225677,-0.812026356436
698,-2.12328868208,-0.297496706192,-0.904221704994,1.82060225677,2.9642067565,-0.070787586005,-0.0450592885375,1.82060225677,-0.812026356436
